7615 10
aspect -0.88937134 -0.43899226 0.19707045 0.6796992 -0.5075998 1.8326374 -1.8067118 -0.63990784 -0.29166427 -1.094571
term -0.7621321 0.04193268 0.64177734 0.75802016 -1.030168 1.0312289 -1.9590181 -0.6072473 -1.2037395 -1.1990558
type -0.9617473 -0.74087316 0.64867496 1.4861658 -0.88564783 0.86793333 -1.4470205 -0.09231357 -0.9461769 -1.500043
Type -1.2385136 -2.1630588 -0.42238998 0.637604 1.066462 -0.3559588 -1.0960733 -1.1509372 -2.123585 0.10725401
sentence -1.6598866 -1.0928739 0.75361955 -0.046655037 0.19530764 1.2519882 -0.74329674 -0.37534887 -2.1922762 -0.105892204
http://example.org/AspectTerm -0.9066069 -1.7535188 -0.19520235 0.5469655 0.9468315 -0.28903127 -1.128134 -1.2361193 -2.2604866 0.14062311
http://example.org/Sentence -0.5299497 -1.6286424 -0.150239 0.51662195 0.88415277 -0.19966252 -1.1638424 -0.99378955 -2.2008982 0.19414623
http://www.w3.org/2000/01/rdf-schema#subClassOf 1.1638474 -1.5297922 -0.45431957 0.65575254 2.4889772 1.870085 -2.52708 1.625807 -2.690584 1.685548
http://www.w3.org/1999/02/22-rdf-syntax-ns#type 0.70571345 -1.599805 0.17491487 1.8332797 1.9690228 2.1768665 -2.7857337 1.8235602 -1.3119134 1.9032032
http://www.semanticweb.org/karoliina/ontologies/2017/4/Restaurant#lex 1.2199115 -0.7659204 0.13767578 -0.02801517 2.3196023 1.2971715 -2.2831805 1.0778979 -1.2314744 0.7144031
http://www.semanticweb.org/karoliina/ontologies/2017/4/Restaurant#aspect 1.1378345 -1.5540308 0.69833016 0.05096295 2.30751 2.4359527 -1.2374433 1.6729366 -1.9928352 0.9072785
subclassof 0.39610767 0.1911635 0.0020748868 -0.7383172 0.5925294 0.84483576 -4.140828 -1.18419 -1.1681575 -0.87975764
SubClassOf 0.7939014 -1.784875 0.3751117 0.8912799 2.2997403 1.8954607 -2.690285 1.9389788 -2.1492884 2.0693321
http://www.w3.org/2002/07/owl#Class 0.7345679 -0.5920457 -0.29074842 -0.05319363 1.8201016 1.4236351 -1.5716279 0.81740767 -3.13372 0.92936206
mention 1.0584966 -0.3179145 0.049670763 -0.14580232 1.1518995 1.7835189 -3.2092957 -1.0781552 -0.28252098 -1.6505916
sentiment 1.8015792 -0.6815033 0.66865206 -0.5139114 1.409688 1.4203176 -4.163536 -1.3315948 -1.2521559 -1.5165648
4 0.6991403 1.2031932 0.18258098 0.72561544 -0.513594 2.381802 -1.4972223 -0.83758366 -1.3036948 -1.8016449
battery -0.8311605 -0.45175445 0.56273186 1.4108336 0.36245307 1.2483864 -1.0741613 -0.6879115 -0.52136064 -1.3727444
price 0.50784445 -0.11956949 0.11490836 0.46839663 0.18918481 1.0330296 -2.2563426 -0.8669847 -0.4396209 -2.0181801
positive 0.98882574 -0.12028315 -0.15608564 0.061727587 2.0395565 1.0237035 -3.7451923 -1.6541953 -0.8946295 -1.656983
windows -1.2871305 0.062021658 0.225201 1.1824049 0.28733784 1.1488724 -1.1744516 0.27680728 -1.0395119 -1.1169363
screen -0.8333111 0.7086976 0.37934104 1.6095152 0.098163426 1.493853 -1.30145 -0.6557602 -0.8920525 -1.215599
http://www.semanticweb.org/karoliina/ontologies/2017/4/Restaurant#GenericPositiveSentiment 0.52356297 -0.2772213 -0.287582 1.1462047 1.5030624 1.4651977 -1.2412819 0.96172523 -1.9991853 0.031133175
http://www.semanticweb.org/karoliina/ontologies/2017/4/Restaurant#CompanyMention 0.4670989 -0.5611452 -0.6734478 1.3404421 1.3688442 1.7219462 -1.584759 0.729366 -1.5695138 0.30109915
negative 0.9611518 -0.13990994 -0.24589609 0.061327893 1.8719218 1.1593299 -3.9349327 -1.6086364 -0.82039905 -2.07377
12 -0.93080074 0.9807198 0.014881961 1.3865714 0.35273176 1.7932588 -1.5367512 -1.0749897 -0.8024645 -1.4918222
0 -0.7479433 0.84762955 -0.15074305 1.6395309 0.2504438 2.0155928 -1.2938837 -0.5342246 -0.6201654 -1.6073397
keyboard -0.20469545 0.18277398 0.06106616 1.2508477 -0.040270373 1.5737561 -1.6159917 -0.59011495 -0.37886354 -1.9130391
7 -1.2624325 0.10391894 0.35369843 1.2435647 0.08925779 1.7222716 -1.1828703 0.046844486 -0.85517246 -0.84876335
use -0.2614924 -0.0018889105 0.91668296 1.1552709 -0.20756976 2.001354 -1.2425292 0.11118224 -0.74976283 -1.7326194
10 -0.9855983 1.0520319 -0.05944689 1.5053211 0.26397288 1.7608825 -1.4058206 -0.83269364 -0.987491 -1.6071099
hard -0.19744381 -0.57651496 0.066979006 0.14885315 0.85662675 0.8194986 -1.3252847 -0.27834693 -0.99333525 -1.0691531
8 -0.8380527 0.70870286 0.37865528 1.4825225 0.28507364 1.8846462 -1.4810612 -0.9121762 -0.6434883 -1.6678225
http://www.semanticweb.org/karoliina/ontologies/2017/4/Restaurant#PriceMention 0.60672903 -0.5068568 -0.5184378 1.5083051 1.2463926 1.6929226 -1.4507434 0.59357196 -1.665968 0.32065606
features 0.432695 -0.06862858 0.32944182 0.22893736 0.4459079 1.1116617 -2.4595861 -0.7473063 -0.40741402 -2.2199087
22 -0.17878214 0.49141762 0.55873674 0.7791446 0.12733941 2.029037 -1.7071136 -0.2997683 -0.47700882 -1.6311444
http://www.semanticweb.org/karoliina/ontologies/2017/4/Restaurant#SentimentMention 0.7326333 -0.26503518 -0.36871 1.3711838 1.1198523 1.5777428 -1.5853537 0.7806741 -2.257534 0.4586109
26 -0.26974395 0.2912439 0.66086715 0.8021265 0.21262205 1.7732725 -1.6820316 -0.320163 -0.58197397 -1.8063817
17 -0.27888516 0.6834823 0.49376413 1.0304286 -0.24462487 2.0197577 -1.6527208 -0.178494 -0.7102039 -1.557981
21 -0.22315931 0.28514528 0.7930859 0.8660671 -0.13711609 2.2304251 -1.4857706 -0.3222373 -0.66125095 -1.6270337
http://www.semanticweb.org/karoliina/ontologies/2017/4/Restaurant#Design_featuresMention 0.35276014 -0.5152836 -0.5591584 1.6364864 0.9033586 1.5095026 -1.3249233 0.28474942 -1.3527889 -0.0027563456
power 0.15461522 -0.6129393 -0.058117736 0.017022919 0.49073914 1.0129999 -1.6335741 -0.70388633 -0.7970209 -1.3538456
warranty 0.2930313 -0.26097554 0.49069247 0.5094487 0.22181794 1.2328306 -1.6365547 -0.14580001 -0.62518126 -1.5958622
http://www.semanticweb.org/karoliina/ontologies/2017/4/Restaurant#AspectMention 0.8549659 -0.30779937 -0.21858102 0.9408528 1.4677303 1.657692 -1.3757037 1.1438953 -2.292614 0.24812919
32 -0.1523697 -0.11271213 0.91632175 0.8438211 0.030857116 1.9834707 -1.589685 0.065942705 -0.45704114 -1.6277217
13 -0.5291485 0.90633047 0.08800121 1.2811412 0.32605764 1.7999437 -1.5321739 -0.6586502 -0.6081397 -1.6711631
service 0.27937686 -0.5712531 0.24297565 0.14904502 0.42765877 1.03681 -1.82855 -0.49377993 -0.6113372 -1.1884333
11 -0.5480917 0.8564908 0.055611163 1.2650625 0.42946804 1.7612603 -1.459265 -1.0710028 -0.8392649 -1.7130289
programs -0.1082725 0.008290519 0.22470887 0.72843426 0.11326914 1.3271897 -1.853406 -0.4852502 -0.42602235 -1.7160642
35 0.0055042286 -0.02749618 1.1412369 0.71749485 0.09375447 1.8629528 -1.7150828 -0.21381092 -0.45656222 -1.6425276
http://www.semanticweb.org/karoliina/ontologies/2017/4/Restaurant#Operation_performanceMention 0.22961605 -0.37199563 -0.60735637 1.6421368 0.783256 1.3501151 -1.3302475 0.20756349 -1.3313286 -0.18484296
18 -0.050806817 0.5797339 0.63219374 0.9736758 0.04871151 1.976692 -1.4555938 -0.60363907 -0.78413266 -1.5812634
15 -0.30879948 0.56084454 0.34317985 1.1229264 0.031238826 2.0228062 -1.4459816 -0.7037717 -0.6322417 -1.5590229
software -0.48948607 -0.16743705 0.41236734 0.8908613 0.13289852 1.3453792 -1.284116 -0.1420313 -0.8215165 -1.5407954
http://www.semanticweb.org/karoliina/ontologies/2017/4/Restaurant#PortsMention 0.63510734 -0.39193347 -0.5988335 1.2257652 1.3683609 1.3513936 -1.4429884 0.67890483 -1.6557411 -0.13315116
36 -0.24574034 -0.09157136 1.2008554 0.80514765 0.23725015 1.8339834 -1.6467588 -0.0028084442 -0.49607015 -1.630169
mouse 0.41134405 -0.20265867 -0.10693747 0.17923264 0.8248907 0.8147471 -2.162553 -1.07005 -0.60025984 -1.4756503
29 -0.1471464 0.0052863657 0.6785524 0.78963464 0.029652368 1.9319968 -1.5639809 -0.2556841 -0.5482934 -1.7514311
31 -0.4697373 0.14644867 0.64615417 0.78538555 0.15768439 2.0419884 -1.570599 -0.30673358 -0.51046515 -1.6350106
http://www.semanticweb.org/karoliina/ontologies/2017/4/Restaurant#UsabilityMention 0.36741018 -0.36204582 -0.66559607 1.6424378 0.7351831 1.5207608 -1.4303488 0.2794121 -1.2331301 -0.08937564
30 -0.34752944 0.049593184 0.9245522 0.8611765 0.18085684 1.9401381 -1.5411029 -0.08031433 -0.5265132 -1.5603184
27 -0.1397524 0.21445106 0.8153866 0.7303461 0.12324042 1.9335325 -1.6795183 -0.34875792 -0.5414679 -1.7171277
16 -0.25002784 0.5794024 0.22920334 0.9150157 0.10056319 1.8777516 -1.6578107 -0.5043914 -0.60574055 -1.8136231
43 -0.3969893 -0.12610479 0.93680763 0.798954 0.049210038 1.8066409 -1.5952502 -0.14461303 -0.545255 -1.5747116
23 -0.36067387 0.4622731 0.7900515 0.99182814 0.2546592 1.8176576 -1.6077003 -0.27682418 -0.56758356 -1.577201
generic 1.2126949 -0.7364804 -0.3891244 -0.1224353 1.5738809 0.746353 -3.2391438 -1.1101485 -1.2758816 -1.5093932
i -1.0257908 0.10154845 0.055341214 1.1456829 0.20643885 1.6024933 -1.242819 0.16844012 -0.7809638 -1.2829713
20 -0.031983927 0.4667403 0.7161178 0.8885788 -0.06819171 2.2992363 -1.4988247 -0.46344748 -0.66445434 -1.5000296
http://www.semanticweb.org/karoliina/ontologies/2017/4/Restaurant#Positive 0.68767947 -0.35340205 -0.28363237 1.4604948 1.0342469 1.60342 -1.4755204 0.7726191 -1.8786843 0.34610033
graphics 0.2942876 0.3345146 0.020172575 0.7860182 0.2805112 1.1347877 -1.6671448 -0.8675017 -0.6357972 -1.6316116
http://www.semanticweb.org/karoliina/ontologies/2017/4/Restaurant#MouseMention 0.5700999 -0.3155809 -0.69793504 1.2981114 0.9324248 1.525992 -1.5754468 0.61807084 -1.5384831 0.060677614
33 -0.027651843 0.0046823304 1.0200541 0.68028516 0.21783002 1.9800038 -1.6505392 -0.25125647 -0.43073907 -1.5160741
6 -0.53360975 0.9261782 0.3286971 1.3206233 0.086171925 1.9194959 -1.4332393 -0.7944241 -0.89736027 -1.705348
http://www.semanticweb.org/karoliina/ontologies/2017/4/Restaurant#CpuMention 0.6792362 -0.3383725 -0.42882815 1.5073018 1.0941757 1.5339571 -1.4715803 0.4894213 -1.4308845 0.07797666
http://www.semanticweb.org/karoliina/ontologies/2017/4/Restaurant#Negative 0.680742 -0.2392118 -0.35028672 1.2989097 1.3194234 1.5736164 -1.4426826 0.79216784 -1.886484 0.17608038
28 -0.117110305 0.10635341 0.6606651 0.8866921 0.10281887 1.9328796 -1.4979426 -0.27388918 -0.55166674 -1.7491276
37 -0.27729723 -0.12352832 1.2088464 0.9030624 0.15609865 1.6974984 -1.6354315 -0.16121553 -0.5579316 -1.5601305
14 -0.50602424 0.81845754 0.30579266 1.1904259 0.1000037 2.1789172 -1.5339589 -0.3792382 -0.61586535 -1.5971111
the -0.108552665 -0.731623 -0.12615725 0.20900294 0.57844263 0.7631957 -1.4894739 -0.3537501 -1.2087874 -0.8210069
44 -0.52054435 -0.12800398 0.99002194 0.9613487 0.17289612 1.6843477 -1.401173 -0.08781489 -0.6768775 -1.6530286
25 -0.63921684 0.1519296 0.87680155 1.1870248 0.08568303 2.091635 -1.340168 -0.10220232 -0.5675189 -1.4957883
9 -0.604038 0.8589902 0.08695247 1.0240097 0.4944773 1.5279835 -1.8491386 -1.2139643 -0.6211999 -1.3977959
http://www.semanticweb.org/karoliina/ontologies/2017/4/Restaurant#OsMention 0.3029634 -0.28770405 -0.6553338 1.3566508 1.1653509 1.3589898 -1.3650185 0.6456626 -1.33829 -0.33052486
38 -0.33110142 -0.14203383 0.92557824 0.7186474 0.23116088 1.7932925 -1.4159085 -0.26067564 -0.6791743 -1.5819058
quality -0.27619493 0.12679304 0.5102258 0.89538693 0.037817445 1.4999771 -1.4994639 -0.3280172 -0.6502317 -1.5021139
46 -0.18456268 -0.07004952 0.9528795 0.64478076 0.1018243 1.7587297 -1.6337191 -0.21550767 -0.60667217 -1.4953784
http://www.semanticweb.org/karoliina/ontologies/2017/4/Restaurant#SofwareMention 0.68151957 -0.14689127 -0.54081464 1.1917048 1.2569302 1.3846097 -1.4230638 0.66049844 -1.4709729 -0.3158034
display 0.6372471 -0.02811912 -0.21386744 0.13928597 0.8643412 1.0336412 -2.5910382 -1.1893448 -0.5526989 -1.8325647
http://www.semanticweb.org/karoliina/ontologies/2017/4/Restaurant#Fans_coolingMention 0.49735785 -0.09405794 -0.69174784 1.3021071 1.1606139 1.3671697 -1.5150564 0.37256312 -1.5105454 -0.09927471
http://www.semanticweb.org/karoliina/ontologies/2017/4/Restaurant#MotherboardMention 0.275636 -0.18983024 -0.6218094 1.4906336 0.9859814 1.3082896 -1.2865978 0.22689514 -1.4850558 -0.1455017
http://www.semanticweb.org/karoliina/ontologies/2017/4/Restaurant#DisplayMention 0.38918525 -0.35734034 -0.6719904 1.5373166 0.9660443 1.5151106 -1.4039319 0.42034668 -1.4312748 -0.082027115
http://www.semanticweb.org/karoliina/ontologies/2017/4/Restaurant#GraphicsMention 0.4474917 -0.3521405 -0.58039844 1.5076599 0.9572239 1.4078243 -1.3413498 0.4402807 -1.56137 -0.14385591
19 -0.09199048 0.36966798 0.5813044 0.760542 0.03029266 2.058986 -1.6114148 -0.3975856 -0.55517685 -1.7602028
47 -0.27931875 -0.12082584 0.6751495 0.6378059 0.16055374 1.5373273 -1.6745838 -0.2764247 -0.5831345 -1.5268304
50 -0.3005888 -0.1603626 0.8010243 0.7216884 0.15646711 1.5376245 -1.6356076 -0.32974097 -0.58795935 -1.7394484
48 -0.5303879 -0.1838998 0.84936565 0.82238173 0.16590334 1.6649045 -1.476744 -0.10186805 -0.64693147 -1.5723584
56 -0.4592128 -0.15917772 0.6389352 0.62426734 0.3587095 1.5184631 -1.5687162 -0.1932325 -0.6199217 -1.6301665
performance -0.014964046 -0.20470116 0.33723113 0.43743622 0.276739 1.1015961 -1.844904 -0.34209523 -0.5455444 -1.5415392
http://www.semanticweb.org/karoliina/ontologies/2017/4/Restaurant#WarrantyMention 0.47880813 -0.20532396 -0.5061165 1.4302684 1.0192479 1.5502064 -1.2794554 0.40687543 -1.4844595 -0.11749591
http://www.semanticweb.org/karoliina/ontologies/2017/4/Restaurant#ControlsMention 0.4248361 -0.3242209 -0.5283394 1.3968456 1.0682944 1.6062901 -1.3359526 0.51522326 -1.4004523 -0.020596545
34 -0.16357328 0.09895195 0.85917884 0.921356 0.07863316 1.9635044 -1.4590274 -0.23753676 -0.5511037 -1.658393
design 0.42660394 0.16244735 0.037882373 0.081058495 0.7023507 1.2212247 -2.5668309 -1.0850261 -0.47109726 -2.0407238
49 -0.5662477 -0.27867603 0.81784016 0.7995145 0.28478113 1.3334905 -1.5191276 -0.16642642 -0.66120434 -1.448366
of -0.23261535 -0.8576057 0.118371174 0.5149268 0.53324807 0.92034054 -1.1323669 -0.736295 -1.3535511 -0.52716255
41 -0.3905159 -0.11878447 0.8445219 0.764764 0.23803164 1.4739451 -1.5753878 -0.04566166 -0.6516443 -1.5847726
http://www.semanticweb.org/karoliina/ontologies/2017/4/Restaurant#GenericNegativeSentiment 0.46952683 -0.19596027 -0.4005662 1.3651094 0.9944432 1.4946077 -1.2615448 0.6385869 -1.5750616 -0.16403295
memory -0.06371005 -0.062124837 0.15232159 0.6634187 0.392084 1.2372535 -1.4874061 -0.33606356 -0.68114775 -1.5808914
size -0.28992403 0.05491786 0.52627474 1.0302789 0.17211032 1.47792 -1.3541301 -0.51383126 -0.68690556 -1.5259237
58 -0.2471899 0.12147649 0.63840044 0.6675195 0.20162857 1.5784967 -1.6374829 -0.08921954 -0.6669968 -1.7838492
http://www.semanticweb.org/karoliina/ontologies/2017/4/Restaurant#PricePositiveSentiment 0.5619145 -0.13034283 -0.35752177 1.3597991 1.101948 1.3607309 -1.23562 0.70279884 -1.8247038 -0.20507361
life_4_16 -0.258107 -0.039209127 0.71137786 0.7381482 0.25229108 1.5087152 -1.3001616 -0.07702703 -0.98273623 -1.4142495
http://www.semanticweb.org/karoliina/ontologies/2017/4/Restaurant#QualityMention 0.102004826 -0.45578486 -0.69204235 1.6410933 0.5882939 1.4796681 -1.1768749 0.110758014 -1.2416877 -0.3260898
internet -0.20867912 -0.23554432 0.1752958 0.5904634 0.6508752 1.2090653 -1.2591168 -0.26995736 -0.72065765 -1.2073734
45 -0.13211437 -0.09133026 0.84762186 0.66613513 0.31658688 1.4636234 -1.7599548 -0.30526206 -0.5244559 -1.6289412
http://www.semanticweb.org/karoliina/ontologies/2017/4/Restaurant#DisplayPositiveSentiment 0.63947195 -0.13297656 -0.30228242 1.416057 1.0286903 1.4560897 -1.287318 0.61545104 -1.7143029 -0.072176136
55 -0.4617119 -0.120754026 0.63907075 0.7598814 0.20973319 1.4409491 -1.5653201 -0.073980585 -0.6930016 -1.6496066
40 -0.21995175 -0.1024265 0.9617196 0.67118025 0.27551958 1.4978719 -1.7710041 -0.35599458 -0.45019403 -1.4862212
42 -0.18759708 -0.029844446 0.7610104 0.61885744 0.0219823 1.590981 -1.6585673 -0.2547475 -0.73455906 -1.7484157
74 -0.4860176 0.08270896 0.47723934 0.7209605 0.25197724 1.4158076 -1.511689 0.03798817 -0.78959924 -1.51724
http://www.semanticweb.org/karoliina/ontologies/2017/4/Restaurant#ConnectivityMention 0.5182387 -0.24853808 -0.6492297 1.3929099 1.1139196 1.4747399 -1.4156878 0.6094056 -1.4721819 -0.13307415
http://www.semanticweb.org/karoliina/ontologies/2017/4/Restaurant#ServiceMention 0.5398394 -0.2617015 -0.35597587 1.4638294 1.0976877 1.6794307 -1.3402467 0.6934614 -1.5397959 0.15659688
http://www.semanticweb.org/karoliina/ontologies/2017/4/Restaurant#PortabilityMention 0.57776076 -0.15590769 -0.5562022 1.5316509 1.0260394 1.3672746 -1.501008 0.5670932 -1.4512626 -0.21052681
62 -0.42127752 -0.07005139 0.69007033 0.6267863 0.24895136 1.391402 -1.5038884 0.06217173 -0.867537 -1.526747
39 -0.3209972 -0.008702424 0.8990779 0.86045384 0.32651037 1.5186205 -1.524052 -0.1777434 -0.6711309 -1.6768379
cooling 1.0681416 -0.29403314 -0.07209397 -0.16625099 1.4375135 0.9113028 -2.9115875 -1.066429 -0.9831643 -1.3782908
http://www.semanticweb.org/karoliina/ontologies/2017/4/Restaurant#LaptopMention 0.24608693 -0.24705793 -0.6917083 1.4712238 0.9013857 1.2289761 -1.3273209 0.28756917 -1.3822465 -0.21632116
24 -0.3189189 0.24339817 0.7559075 0.856701 0.17892171 1.6958121 -1.7529231 -0.23322791 -0.452358 -1.6352358
54 -0.4901615 -0.09473352 0.8010969 0.80906105 0.27558073 1.4849347 -1.4237881 -0.093236335 -0.7739519 -1.498928
59 -0.3358462 0.06398302 0.6244099 0.78020185 0.20234242 1.4319566 -1.577987 -0.18080929 -0.74032086 -1.6394851
64 -0.62143403 0.10696135 0.5754575 0.67865974 0.2723869 1.5960853 -1.5716136 -0.0042419755 -0.7504417 -1.5740528
63 -0.25126362 -0.027738683 0.5324702 0.63625944 0.32560742 1.2493118 -1.6642156 -0.3217953 -0.66427034 -1.5011321
53 -0.5247594 -0.124855526 0.7983582 0.92484176 0.26225638 1.5270336 -1.3445275 -0.09208017 -0.8095999 -1.5318135
motherboard 0.18882124 -0.28769445 0.2646397 0.43907273 0.6661258 1.0861591 -1.7377393 -0.47011325 -0.4081586 -1.6787968
84 -0.44479388 0.009018043 0.5994838 0.7247293 0.2908228 1.6762819 -1.4246266 -0.123918064 -0.7118634 -1.5184987
http://www.semanticweb.org/karoliina/ontologies/2017/4/Restaurant#ShippingMention 0.36027843 -0.34041977 -0.67920864 1.4186784 0.80666566 1.5631958 -1.1854165 0.32882905 -1.3230948 -0.2989422
52 -0.5961045 -0.05980153 0.74526215 0.83842486 0.21456407 1.5082672 -1.3560158 -0.203724 -0.82727873 -1.5684733
5 -0.47364837 0.40908742 0.35350755 1.0605803 0.20010066 1.6454132 -1.5322843 -0.57968897 -0.5981351 -1.5811163
os 0.27412027 0.044756323 -0.091006 0.49603465 0.7091618 1.1517515 -1.7096788 -0.6779559 -0.48691413 -1.5094945
76 -0.3793473 -0.16098157 0.5241208 0.689901 0.29634053 1.3865561 -1.4710096 -0.14103273 -0.7253753 -1.3716156
102 -0.4262144 0.025641197 0.58897316 0.7052969 0.33945736 1.4660264 -1.3646451 -0.1425577 -0.9000391 -1.441909
82 -0.3809317 -0.1415779 0.47062108 0.49137837 0.27876565 1.3436856 -1.4578984 -0.09333438 -0.91189367 -1.5960884
70 -0.4641299 -0.032722577 0.41771862 0.6277763 0.36565542 1.4217031 -1.5056056 -0.15699187 -0.6967665 -1.491704
speed -0.3514295 0.48076478 0.30306777 1.1145264 0.05117 1.5682293 -1.3828568 -0.4705178 -0.8165997 -1.4913443
73 -0.45639652 -0.16931579 0.38985837 0.6414003 0.3050173 1.2815207 -1.3702455 -0.10921327 -0.89931893 -1.3810978
applications -0.46441546 -0.042224355 0.54031754 0.9132971 0.23729378 1.3206209 -1.2970874 -0.12595415 -0.8746631 -1.4500054
68 -0.5618616 -0.26580647 0.31037143 0.66373336 0.33164096 1.2536517 -1.2559255 -0.15992264 -0.9931779 -1.3570998
http://www.semanticweb.org/karoliina/ontologies/2017/4/Restaurant#Fans_coolingNegativeSentiment 0.63931084 -0.20390521 -0.5778618 1.2388576 1.1682667 1.3675692 -1.2873224 0.5569961 -1.5503044 -0.3072684
http://www.semanticweb.org/karoliina/ontologies/2017/4/Restaurant#PriceNegativeSentiment 0.54022115 -0.11961587 -0.3825511 1.2860651 1.1591492 1.3850712 -1.2924703 0.56953216 -1.6371287 -0.24603292
http://www.semanticweb.org/karoliina/ontologies/2017/4/Restaurant#SpaceMention 0.3215477 -0.28427473 -0.6341349 1.4196922 0.879704 1.49563 -1.2037538 0.35677272 -1.5073133 -0.12003065
customer -0.2559872 -0.4194651 0.097443424 0.3997545 0.61020774 1.0001255 -1.3232901 -0.18448278 -1.0011704 -0.8426531
http://www.semanticweb.org/karoliina/ontologies/2017/4/Restaurant#Power_supplyMention 0.41404885 -0.1960168 -0.57484543 1.2501934 0.97652525 1.3316286 -1.1915642 0.33919132 -1.4262286 -0.36886585
touch -0.29301813 -0.4510779 0.3285822 0.56791395 0.4385041 1.1451751 -1.2601593 -0.30070996 -0.96603596 -0.89311934
79 -0.4635713 0.091029614 0.41465726 0.6639414 0.33785483 1.3322048 -1.4992063 -0.27846768 -0.85052276 -1.3918413
94 -0.50025076 -0.12717581 0.5787784 0.69420844 0.3006288 1.38838 -1.4702299 -0.23345019 -0.7844406 -1.33373
92 -0.42149714 -0.019269766 0.33687407 0.79444134 0.3130307 1.46301 -1.3022422 -0.06797235 -0.8327839 -1.5243478
67 -0.5099089 0.0037097386 0.5534592 0.79572564 0.3707034 1.4110872 -1.4902438 -0.012413948 -0.7827153 -1.516714
system -0.470456 0.06056539 0.34545758 1.088617 0.3605633 1.3800867 -1.228168 -0.38222578 -0.65079135 -1.2477887
66 -0.50735706 -0.059636306 0.5800995 0.7347533 0.26530465 1.3317162 -1.4687078 -0.09982227 -0.829078 -1.4947513
runs -0.6835736 0.107374854 0.38028508 1.128641 0.2831389 1.5360682 -1.2694311 -0.37305537 -0.67652696 -1.5703368
86 -0.38748989 0.012071255 0.4675743 0.61576676 0.42181093 1.4905416 -1.4203267 -0.10174328 -0.7952061 -1.4184529
57 -0.41503647 -0.0007838057 0.65342516 0.72744364 0.153351 1.5526049 -1.420905 -0.046873726 -0.8513026 -1.5495
fans 1.280973 -0.6472566 -0.1753301 -0.003549645 1.1637601 0.81740314 -3.0909529 -1.1098446 -1.0097919 -1.4181364
72 -0.4281393 -0.16025344 0.47206995 0.6348146 0.37664786 1.4190894 -1.3201008 -0.08569943 -0.9030804 -1.497391
portability 0.7288848 -0.16611409 -0.10437323 0.03921494 0.8288191 0.9010604 -2.5133204 -0.8103565 -0.6343442 -1.6835682
vista -0.6194715 -0.23011796 0.5065919 0.8555074 0.23472238 1.3438089 -1.3522575 0.002199266 -0.80167884 -1.2556721
90 -0.49152538 -0.09150904 0.39675546 0.7589664 0.2711012 1.482909 -1.368074 -0.16793168 -0.7608415 -1.5695732
http://www.semanticweb.org/karoliina/ontologies/2017/4/Restaurant#Hard_diskMention 0.32133588 -0.19185881 -0.53797674 1.417425 0.8373944 1.4153284 -1.2077291 0.35559744 -1.3882173 -0.2712167
100 -0.26193932 0.051169623 0.43436468 0.7429827 0.46397728 1.4754962 -1.4325858 -0.28748584 -0.647566 -1.3490248
http://www.semanticweb.org/karoliina/ontologies/2017/4/Restaurant#Fans_coolingPositiveSentiment 0.6163692 -0.27759534 -0.5566229 1.3321131 0.9542231 1.3521914 -1.2599031 0.5025482 -1.4088029 -0.29145232
http://www.semanticweb.org/karoliina/ontologies/2017/4/Restaurant#UsabilityPositiveSentiment 0.5916886 -0.03816357 -0.35403684 1.2561193 0.9418576 1.4996078 -1.1807151 0.42502865 -1.5947981 -0.14015417
61 -0.44211873 -0.1660848 0.55890256 0.7009806 0.31515267 1.5393968 -1.3034787 -0.0034315388 -0.8350713 -1.4474585
88 -0.4994234 -0.0010708442 0.59790534 0.8008823 0.3469968 1.6229511 -1.3219016 -0.14059271 -0.8036611 -1.3795574
operating -0.4176662 -0.24068579 0.24528912 0.6999786 0.5865882 1.1079203 -1.1091958 -0.109852776 -1.0219728 -0.97198117
http://www.semanticweb.org/karoliina/ontologies/2017/4/Restaurant#DisplayNegativeSentiment 0.5687567 0.016881423 -0.4163723 1.4555777 1.0344002 1.4381675 -1.1593276 0.4336725 -1.5946611 -0.21777157
60 -0.39847934 -0.114268765 0.4305885 0.6051097 0.3241411 1.5024029 -1.3539813 -0.15752253 -0.82747024 -1.3301045
http://www.semanticweb.org/karoliina/ontologies/2017/4/Restaurant#Core 0.48558444 -0.035243843 -0.49668154 1.1801168 0.85107034 1.1663216 -1.3295821 0.26592204 -1.2676343 -0.38696435
usb -0.13019219 -0.24865936 0.06346462 0.5553312 0.60991013 1.0431298 -1.2455007 -0.20103358 -0.9296443 -1.1091071
http://www.semanticweb.org/karoliina/ontologies/2017/4/Restaurant#SupportMention 0.42656872 -0.100470744 -0.5969105 1.2156056 0.9588238 1.2261139 -1.24671 0.25549528 -1.3829652 -0.33370844
http://www.semanticweb.org/karoliina/ontologies/2017/4/Restaurant#PowerMention 0.18690148 -0.27982587 -0.5206638 1.5243583 0.84719855 1.2686146 -1.23074 0.23743343 -1.3186878 -0.16223042
http://www.semanticweb.org/karoliina/ontologies/2017/4/Restaurant#SofwareNegativeSentiment 0.43428543 -0.022398021 -0.5076425 1.3136808 0.98145103 1.3160647 -1.1916524 0.4042755 -1.5198222 -0.2995755
78 -0.451586 -0.017464172 0.4475281 0.5013509 0.25946632 1.2730365 -1.5745419 -0.2669872 -0.86488146 -1.383102
http://www.semanticweb.org/karoliina/ontologies/2017/4/Restaurant#ProgramsMention 0.3345296 -0.12196536 -0.47133666 1.389431 1.020225 1.2973173 -1.1746101 0.46626946 -1.4141114 -0.22124976
http://www.semanticweb.org/karoliina/ontologies/2017/4/Restaurant#Optical_drivesMention 0.24948268 -0.08483061 -0.57550323 1.4046677 0.85934806 1.362393 -1.3152635 0.34822512 -1.2960254 -0.23945233
69 -0.33102748 0.041976914 0.48939362 0.6250946 0.29575792 1.3527648 -1.4339423 -0.20831564 -0.9436618 -1.441616
http://www.semanticweb.org/karoliina/ontologies/2017/4/Restaurant#BatteryMention 0.30536094 -0.21906692 -0.45585376 1.4256164 0.8087033 1.2866199 -1.0774809 0.32183906 -1.2575036 -0.37758824
65 -0.51555616 -0.13359202 0.53514415 0.62572306 0.2083394 1.5173681 -1.435547 -0.13515706 -0.809683 -1.4486827
value 0.34321138 -0.14049861 0.14837047 0.31179196 0.692126 0.9560667 -1.8807285 -0.5559071 -0.5181239 -1.5478617
sofware 0.96420574 -0.58921844 -0.28049648 -0.0005405189 1.1195978 0.79367507 -3.0605357 -0.88297594 -0.8206338 -1.6288918
http://www.semanticweb.org/karoliina/ontologies/2017/4/Restaurant#AttachmentsMention 0.20901419 -0.28086057 -0.55215126 1.4588842 0.8963655 1.3402743 -1.188058 0.35739306 -1.4788063 -0.19350849
95 -0.28028426 -0.21588089 0.5078263 0.5166469 0.3953911 1.3639787 -1.5300915 -0.20804891 -0.70977557 -1.3326892
http://www.semanticweb.org/karoliina/ontologies/2017/4/Restaurant#Resolution 0.52252567 -0.035723496 -0.4474131 1.238208 0.8675726 1.2471796 -1.2024065 0.31685042 -1.527319 -0.17648186
cpu 0.8712322 -0.4369505 -0.31940633 -0.033720966 1.0899386 0.8284776 -2.860822 -0.9146948 -0.7864212 -1.5695006
3 -0.45282766 0.27052253 0.4451006 1.059026 0.26254183 1.5325941 -1.2474742 -0.3815226 -0.8031609 -1.3755227
tech -0.2923571 -0.32981923 0.2345925 0.7347253 0.55703664 0.9074389 -1.2915041 -0.1583676 -0.91498184 -0.93406457
77 -0.49011326 -0.098088525 0.52370405 0.5233268 0.3688204 1.2587209 -1.5094742 -0.024840117 -0.89798945 -1.4574534
wireless 0.048688933 -0.22121133 -0.028441554 0.56433594 0.7458092 0.9765579 -1.4018959 -0.32372242 -0.84280413 -1.1317813
80 -0.4465226 0.26113257 0.33243972 0.83190674 0.38540635 1.4980285 -1.3206381 -0.16127478 -0.8081576 -1.552672
http://www.semanticweb.org/karoliina/ontologies/2017/4/Restaurant#GenericNeutralSentiment 0.4163997 -0.0069098766 -0.38053495 1.2769687 0.91077566 1.2433051 -1.1177548 0.32403478 -1.6137128 -0.26412684
company 0.9250362 -0.49399218 -0.24270135 0.10620177 0.8818946 1.0496126 -2.2415395 -0.67383075 -0.60935396 -1.2750752
work -0.48677546 0.16181067 0.38061047 0.96838623 0.26308283 1.3916032 -1.2910895 0.07724346 -0.88574994 -1.5461106
video 0.018343994 -0.33127847 0.12801585 0.60842866 0.6047924 0.991054 -1.3974117 -0.32807004 -0.8051276 -1.0068887
gaming -0.34718663 -0.16800888 0.42924714 0.8572417 0.35074064 1.3111106 -1.3069912 -0.095136106 -0.758351 -1.2816483
93 -0.5051068 0.040877618 0.47315133 0.7656545 0.26170206 1.4768287 -1.3652313 -0.045302805 -0.87607694 -1.4297394
http://www.semanticweb.org/karoliina/ontologies/2017/4/Restaurant#ContextDependentSentimentMention 0.39604232 -0.12134687 -0.55001086 1.3428203 1.0070106 1.3722386 -1.1337395 0.26603833 -1.3670382 -0.3254863
program -0.13075785 0.13700324 0.36886343 0.77866673 0.3238144 1.5033089 -1.4727577 -0.34076983 -0.581875 -1.3823181
ram -0.15943551 -0.021312367 0.19239514 0.7835246 0.45076987 1.2287153 -1.388751 -0.23870905 -0.6943829 -1.375204
http://www.semanticweb.org/karoliina/ontologies/2017/4/Restaurant#KeyboardMention 0.45248163 -0.07437725 -0.46822974 1.1925818 0.84570277 1.2828968 -1.1736169 0.40874666 -1.3361002 -0.38012075
fan -0.13923116 -0.018353771 0.20661779 0.67197233 0.6208054 1.1540304 -1.3561738 -0.2773125 -0.7367784 -1.3547223
97 -0.19835672 -0.21556668 0.38410348 0.62869567 0.36415756 1.3328059 -1.3337281 -0.15574726 -0.8186045 -1.3455856
shipping 0.3444989 -0.27843416 0.31255424 0.41397253 0.44944847 1.2320186 -1.6700964 -0.26501054 -0.53761494 -1.5634066
http://www.semanticweb.org/karoliina/ontologies/2017/4/Restaurant#UsabilityNegativeSentiment 0.5709326 -0.08146329 -0.45159864 1.1344484 1.042863 1.3859915 -1.082391 0.37750554 -1.5663841 -0.30346933
extended -0.3232092 -0.25819117 0.2996613 0.74176633 0.68548524 1.0179 -1.1322417 -0.15940046 -0.9816036 -0.84045
http://www.semanticweb.org/karoliina/ontologies/2017/4/Restaurant#MousePositiveSentiment 0.5378914 -0.045298636 -0.41097912 1.2979343 0.970657 1.3148485 -1.2470478 0.47497484 -1.5342093 -0.28374434
office -0.27091342 -0.09167214 0.20307325 0.7619908 0.45732823 1.1327581 -1.2728218 -0.3923615 -1.0221695 -0.9435211
touchpad -0.15610278 0.20928758 0.3486457 0.8861306 0.29486066 1.2877209 -1.5004716 -0.32079825 -0.6883923 -1.2493311
charge -0.40540937 -0.12501174 0.567381 0.88012 0.35802653 1.4127871 -1.2969952 -0.06258401 -0.7356568 -1.4077286
101 -0.22285607 -0.14208157 0.4848812 0.68560064 0.5307344 1.4807432 -1.4157366 -0.119719036 -0.6706198 -1.2395126
51 -0.31423336 -0.01488376 0.653784 0.72479594 0.27668923 1.4159986 -1.5988402 -0.25430092 -0.64865315 -1.4683294
98 -0.3588256 -0.058046192 0.46571335 0.81726485 0.3632792 1.3304176 -1.332178 -0.19078414 -0.88165355 -1.277924
453 -0.43716428 -0.12183895 0.31587702 0.67985487 0.47095835 1.29745 -1.292238 -0.0071425005 -0.92184615 -1.3070458
89 -0.358953 -0.14470878 0.30353615 0.5937965 0.3777947 1.3474929 -1.4827921 -0.11010831 -0.7832467 -1.3811429
life -0.40610892 -0.0013238997 0.3152806 0.80771935 0.39604065 1.2315747 -1.3016162 0.053727068 -1.009652 -1.2480662
works -0.30294314 0.029004766 0.32945728 0.96145725 0.19230045 1.5670379 -1.1596146 -0.15465367 -0.7653529 -1.3405218
83 -0.3442997 -0.19397536 0.49850017 0.5982988 0.40518162 1.3727216 -1.4103324 -0.20811298 -0.87218046 -1.2038937
word -0.374094 -0.09217451 0.26000646 0.64406663 0.52128065 1.2280135 -1.1778432 -0.23426382 -0.98638296 -1.0453837
usability 1.157082 -0.58047223 -0.36372244 -0.12860245 1.2376053 0.86612254 -2.9394803 -0.98828024 -0.9591809 -1.4848468
external -0.37157986 -0.21046734 0.10796622 0.6427286 0.47234315 0.9277306 -1.3055892 -0.1503519 -1.1649686 -0.7899585
81 -0.34336004 -0.005328866 0.340398 0.61550033 0.3292726 1.2904816 -1.5380949 -0.3186275 -0.76103973 -1.4105221
speakers -0.46169984 0.13249236 0.2377088 1.0548441 0.33518428 1.4865664 -1.2582948 -0.3560608 -0.66540176 -1.53156
http://www.semanticweb.org/karoliina/ontologies/2017/4/Restaurant#Design_featuresPositiveSentiment 0.40542674 -0.11748952 -0.506553 1.3029368 0.8993345 1.3961889 -1.1815203 0.4309887 -1.5210747 -0.17471462
96 -0.43533045 -0.08424458 0.47390625 0.73765033 0.47307745 1.2747846 -1.3257564 -0.25801033 -0.8658428 -1.3689533
http://www.semanticweb.org/karoliina/ontologies/2017/4/Restaurant#Design_featuresNegativeSentiment 0.4340959 -0.14713316 -0.5190361 1.2509456 0.8855739 1.2952974 -1.2182542 0.47765088 -1.4397975 -0.17969455
processor -0.4654018 0.2838958 0.19469057 1.0238774 0.34719938 1.3651874 -1.2115853 -0.5544366 -0.7809986 -1.3919978
in -0.41754174 -0.2053178 0.14737326 0.77748454 0.5319879 1.0258814 -1.1906126 -0.017342068 -1.1441014 -0.93212986
built -0.3614892 -0.17170526 0.32118642 0.8248083 0.43770158 1.0979701 -1.256908 -0.071758024 -0.98129404 -1.0923771
http://www.semanticweb.org/karoliina/ontologies/2017/4/Restaurant#ControlsPositiveSentiment 0.4519899 -0.057288907 -0.4469834 1.3502587 0.8299891 1.3186164 -1.1774209 0.42292365 -1.39517 -0.2733525
87 -0.27921557 -0.03986604 0.5102524 0.5978057 0.4583046 1.2607611 -1.4110777 -0.23973452 -0.93147033 -1.3785963
keys -0.59670335 0.14318946 0.34694055 1.0027272 0.2987344 1.6281905 -1.2846229 -0.4055995 -0.6858312 -1.3571689
http://www.semanticweb.org/karoliina/ontologies/2017/4/Restaurant#PortabilityPositiveSentiment 0.36883366 -0.06050703 -0.42918637 1.2652261 0.8139723 1.4386746 -1.121957 0.48011747 -1.3567325 -0.27215648
108 -0.32895437 -0.1683159 0.42078775 0.62850237 0.44385973 1.3602808 -1.2749735 -0.2849005 -0.93780595 -1.2110492
dvd -0.31611645 -0.18572947 0.22520527 0.6812653 0.47562382 1.1459391 -1.2500579 -0.11983598 -0.99709475 -1.0138434
controls 1.0079886 -0.62278426 -0.13064156 -0.10200336 1.0548708 0.8852332 -2.9734204 -1.0678456 -0.8427131 -1.6419262
look -0.2012947 0.009556378 0.29292014 0.7500589 0.39022467 1.3000021 -1.5277796 -0.3313988 -0.64095634 -1.3862889
connectivity 0.9081941 -0.49679503 -0.36870214 -0.04203273 1.1957947 0.89034635 -2.941666 -0.9278576 -0.8098653 -1.5874156
85 -0.3956578 -0.27363446 0.26050377 0.59848326 0.47756332 1.3919872 -1.3072433 -0.14126028 -0.81662667 -1.3132588
103 -0.32257968 -0.026197683 0.29391778 0.69205695 0.5309636 1.3110081 -1.2087526 -0.09181489 -0.9714286 -1.2459772
for -0.15639262 -0.4927555 0.124362394 0.63231444 0.49372873 0.95546377 -1.3790764 -0.33385918 -1.1558317 -0.85733694
112 -0.20318183 0.011239219 0.28843433 0.70765287 0.28516832 1.3579155 -1.3391503 -0.4185073 -0.9376996 -1.3336779
apple 0.013048337 -0.14577754 0.0060314173 0.55061525 0.5656114 0.98431206 -1.3839419 -0.32181707 -0.8905005 -0.9580233
web -0.30396512 -0.27786872 0.2812284 0.7263864 0.56820273 1.0181751 -1.1619616 -0.03548655 -1.1206586 -0.89462245
107 -0.3473445 -0.14222813 0.44371498 0.6544175 0.33490157 1.302936 -1.2730474 -0.15510751 -0.98403597 -1.2994791
hardware -0.021645734 -0.10716574 0.35218477 0.64269483 0.3707074 1.210824 -1.4578916 -0.2810146 -0.8067341 -1.0859443
http://www.semanticweb.org/karoliina/ontologies/2017/4/Restaurant#PortabilityNegativeSentiment 0.35478595 -0.17442594 -0.5197286 1.1825422 0.7236757 1.2624209 -1.1707009 0.4596296 -1.4782462 -0.2938386
91 -0.27305558 -0.0975699 0.46834907 0.670499 0.45897642 1.4276615 -1.3447838 -0.1303316 -0.86945695 -1.1593332
warrenty -0.3200366 0.011603548 0.38627005 0.77802694 0.44752768 1.2864858 -1.2376413 -0.15646881 -0.9551948 -1.2164757
http://www.semanticweb.org/karoliina/ontologies/2017/4/Restaurant#ConnectivityPositiveSentiment 0.44466665 -0.13978773 -0.4473244 1.2179723 0.98849684 1.2356969 -1.1962792 0.50832856 -1.4411612 -0.2929469
115 -0.3828895 0.0014249787 0.4981634 0.74127454 0.39375117 1.4591105 -1.2026949 -0.21838927 -0.93428993 -1.2791218
http://www.semanticweb.org/karoliina/ontologies/2017/4/Restaurant#ConnectivityNegativeSentiment 0.50119704 -0.00049374974 -0.43136436 1.2832831 0.99462676 1.2831215 -1.2664402 0.4286155 -1.2805872 -0.27207813
http://www.semanticweb.org/karoliina/ontologies/2017/4/Restaurant#Multimedia_devicesMention 0.24905573 -0.17404662 -0.5376892 1.3275646 0.7108034 1.2579926 -1.1350458 0.19532089 -1.1569915 -0.3804982
ports 0.522361 -0.52469283 -0.075004235 0.070039935 0.75904554 0.93644685 -2.2120206 -0.57698035 -0.5824754 -1.3864906
154 -0.2252549 -0.1485475 0.42159832 0.76444095 0.48563972 1.3701755 -1.2755542 -0.23102203 -0.87456036 -1.1173589
113 -0.22984226 0.12962823 0.27993035 0.84858614 0.36694098 1.454892 -1.2557809 -0.31079108 -0.92613643 -1.1878601
http://www.semanticweb.org/karoliina/ontologies/2017/4/Restaurant#MouseNegativeSentiment 0.5206425 -0.21176068 -0.46027195 1.2726784 0.97491616 1.3668001 -1.1194686 0.30705166 -1.3189583 -0.3231682
drive -0.1391897 -0.23427546 0.30496797 0.7315926 0.41758963 0.99284506 -1.385376 -0.06357278 -1.1220757 -0.78120476
75 -0.39149705 -0.1519335 0.3160274 0.638228 0.44819927 1.2357677 -1.4909765 -0.12605494 -0.8254902 -1.3718332
http://www.semanticweb.org/karoliina/ontologies/2017/4/Restaurant#MemoryMention 0.4579402 0.047409993 -0.36125264 1.1386634 0.8476403 1.2165023 -1.192394 0.25028458 -1.2418184 -0.42648283
space 0.4019272 -0.12265764 -0.019063823 0.18614396 0.51429766 1.0046029 -1.9496088 -0.47024563 -0.6123429 -1.3403558
104 -0.32551882 -0.11608768 0.4565856 0.66011304 0.5638404 1.3589209 -1.2374085 -0.031618595 -0.97363013 -1.1777079
sound -0.40661058 -0.09935905 0.31865653 0.8365381 0.35906652 1.271641 -1.3449216 -0.28442168 -0.7269682 -1.1032509
photo -0.4386236 0.1573674 0.34247226 0.8861399 0.49614817 1.2157557 -1.290995 -0.24725802 -0.96482986 -1.2773176
http://www.semanticweb.org/karoliina/ontologies/2017/4/Restaurant#CpuNegativeSentiment 0.4827001 -0.06678902 -0.43775788 1.3611526 0.8439567 1.3673933 -1.2133096 0.43658334 -1.3924726 -0.19910218
http://www.semanticweb.org/karoliina/ontologies/2017/4/Restaurant#CpuPositiveSentiment 0.41962618 -0.139959 -0.44273227 1.3760213 0.91650695 1.3470367 -1.1535082 0.5699467 -1.4040015 -0.26247483
support 0.2592233 -0.15068088 -0.09852806 0.3942159 0.6872057 1.0079633 -1.7208087 -0.50927526 -0.6260357 -1.1879454
mac -0.22637342 -0.2147277 0.37979075 0.67364115 0.5324896 1.0996509 -1.2206016 -0.20692578 -1.0389987 -1.0642253
105 -0.47340336 -0.09354966 0.4421734 0.7317811 0.32695502 1.3800553 -1.423613 -0.15152536 -0.7937513 -1.1466503
microsoft -0.32119745 -0.34763193 0.23713484 0.6562136 0.65315634 1.1646326 -1.1251975 -0.164661 -1.0129571 -0.93780977
bios -0.1780891 -0.21029726 0.25848833 0.575336 0.46866664 1.1688446 -1.4706538 -0.058446366 -0.8144704 -1.1902097
cost -0.16304189 0.003822132 0.28235143 0.92473185 0.33439627 1.3036374 -1.2408317 -0.051623397 -0.86332756 -1.3210114
disk 0.19184636 -0.22407734 0.058395106 0.3688641 0.68247163 0.7125191 -1.8030926 -0.4689492 -0.8816897 -0.93691856
resolution 0.2871311 -0.31569704 0.0634286 0.5586769 0.5359679 1.1251209 -1.56001 -0.48888534 -0.6710755 -1.1915766
1048 -0.27211416 -0.084506266 0.441742 0.68753994 0.36452064 1.3824517 -1.3345075 -0.16796641 -0.8728591 -1.2321863
bluetooth -0.38160992 0.063327 0.28384602 0.99259263 0.29668793 1.2669644 -1.2421625 -0.2315587 -0.867372 -1.2337608
http://www.semanticweb.org/karoliina/ontologies/2017/4/Restaurant#Cd 0.31383282 -0.07105381 -0.48853976 1.2100699 0.7564867 1.2090012 -1.2350825 0.29669434 -1.1531273 -0.4765312
weight -0.03659785 0.028705062 0.3666283 0.7180882 0.36615595 1.3876176 -1.3623371 -0.20223862 -0.7482599 -1.3078164
110 -0.29193535 -0.06880328 0.40826935 0.698647 0.49492404 1.2911907 -1.3195735 -0.22424145 -0.9460476 -1.2395823
operation 0.27196878 -0.2820524 -0.014394842 0.30558652 0.6531706 1.0193932 -1.793485 -0.3068909 -0.5992374 -1.2859006
repair -0.29612166 -0.16171141 0.32064655 0.74734795 0.48139447 1.0327106 -1.312133 -0.21926697 -0.9008664 -1.0227804
111 -0.34974518 0.02098084 0.3762561 0.6995591 0.46546823 1.3217628 -1.3677323 -0.187001 -0.89363533 -1.0617937
boot -0.38903537 -0.18552113 0.29450893 0.6659704 0.51131403 1.114956 -1.1601156 -0.22401905 -0.98764503 -1.2132068
games -0.4457473 0.033480614 0.36181054 1.0111632 0.28024366 1.4005677 -1.330766 -0.27945587 -0.7164805 -1.3288429
to -0.0980207 -0.3413477 0.17535685 0.62570226 0.6196982 1.086454 -1.3463295 -0.15659283 -1.10236 -0.83413786
http://www.semanticweb.org/karoliina/ontologies/2017/4/Restaurant#SofwarePositiveSentiment 0.33150214 -0.15517136 -0.4864594 1.2119387 0.85664654 1.2284803 -1.1454257 0.51683486 -1.3324842 -0.2992642
cd -0.10705571 -0.168439 0.007210243 0.64274985 0.6305125 0.95006496 -1.2504959 -0.21377015 -0.99552995 -0.879815
134 -0.32086968 -0.101556 0.2440186 0.677206 0.5702266 1.2159675 -1.3504289 -0.16295382 -0.8924412 -1.212246
2808 -0.24005824 -0.07565579 0.38293448 0.69469565 0.58240044 1.1263261 -1.3387163 -0.19741449 -0.92355496 -1.1689556
http://www.semanticweb.org/karoliina/ontologies/2017/4/Restaurant#Gigabyte 0.26934743 -0.024040267 -0.41924417 1.0690033 0.65587574 1.144988 -1.111173 0.18530037 -1.1928488 -0.39510566
71 -0.26303738 -0.11032729 0.5396752 0.6053785 0.46751642 1.3979125 -1.4034976 -0.20078118 -0.7808756 -1.3332111
http://www.semanticweb.org/karoliina/ontologies/2017/4/Restaurant#HardwareMention 0.18061699 -0.22612314 -0.4269759 1.3044423 0.5240535 1.1446675 -1.0909772 0.17982231 -1.2265939 -0.42009646
toshiba 0.08467662 -0.44239688 0.10993713 0.6196746 0.6796327 1.0314531 -1.3749934 -0.19786078 -0.8284003 -0.8804704
http://www.semanticweb.org/karoliina/ontologies/2017/4/Restaurant#Hd 0.23883781 -0.108196184 -0.48604578 1.1439637 0.7649071 1.0800425 -1.2014712 0.08735546 -1.1484274 -0.4142656
core 0.14901327 -0.3071759 0.1320749 0.6461333 0.70019 0.93607694 -1.4602362 -0.29170823 -0.89896727 -0.8233501
162 -0.2365984 -0.209919 0.19019711 0.6564959 0.5719592 1.1324708 -1.342223 -0.28677845 -0.88567054 -1.0278739
backlit -0.23857565 -0.33757746 0.16248238 0.58325994 0.5323124 1.0769213 -1.3451174 -0.13924861 -1.0424924 -0.77815574
142 -0.21473938 -0.19282006 0.34763318 0.6090804 0.37736535 1.3621293 -1.2572988 -0.2502268 -0.949793 -1.1752898
http://www.semanticweb.org/karoliina/ontologies/2017/4/Restaurant#Clockrate 0.30271688 -0.17584918 -0.41685534 1.1100122 0.6837635 1.224396 -1.1318761 0.28215012 -1.2416797 -0.32871875
http://www.semanticweb.org/karoliina/ontologies/2017/4/Restaurant#Calculation 0.38474348 -0.20623423 -0.23633559 0.88248295 0.7841383 1.122966 -1.0589672 0.110249676 -1.1458783 -0.4217794
pad_4_13 -0.20657665 -0.3719497 0.15087658 0.5547193 0.58807206 1.0168192 -1.2471917 -0.17303163 -1.0364406 -0.93318355
140 -0.2492562 -0.23959832 0.27017772 0.6594101 0.45262024 1.2091048 -1.3390379 -0.0986374 -0.9502867 -1.0219753
sales -0.23878454 -0.17535342 0.17874 0.61933684 0.5192092 1.0335236 -1.3044316 -0.23772006 -0.9663279 -0.94174886
300 -0.31439984 -0.19112764 0.32465112 0.68538827 0.52971476 1.2037205 -1.291657 -0.188252 -0.9564807 -1.0643214
486 -0.3166627 -0.3228429 0.14717165 0.7266108 0.5509307 1.1394029 -1.2440813 -0.19139867 -0.91099894 -1.0433508
312 -0.39325172 0.004891973 0.189465 0.8959491 0.4365734 1.2810417 -1.2437013 -0.068969324 -1.0885103 -1.0521789
313 -0.26331627 0.012925088 0.3346259 0.71365434 0.49475858 1.3184193 -1.3275058 -0.12378362 -0.9172549 -1.1870053
http://www.semanticweb.org/karoliina/ontologies/2017/4/Restaurant#Wifi 0.34071645 -0.0828532 -0.43740588 1.1292461 0.86050636 1.0946376 -1.1642087 0.27140886 -1.2206186 -0.37176156
106 -0.19642696 -0.17897955 0.28094 0.6646776 0.5515562 1.271561 -1.4387735 -0.22028409 -0.76645505 -1.285955
156 -0.08180812 -0.19949093 0.2631803 0.65445536 0.4283053 1.2656168 -1.459518 -0.21628077 -0.80797434 -1.1387671
drive_20_30 -0.34253722 -0.22553292 0.14370686 0.66136944 0.4182133 1.0477732 -1.3322477 -0.2020408 -1.0153787 -0.8135683
http://www.semanticweb.org/karoliina/ontologies/2017/4/Restaurant#Socket 0.36243612 -0.046778485 -0.43675643 1.0545417 0.8967565 1.101549 -1.1497043 0.21383327 -1.1942669 -0.40588292
117 -0.16525649 -0.1981616 0.3280393 0.4804641 0.53266126 1.2952439 -1.4329885 -0.35403728 -0.9304064 -1.045166
http://www.semanticweb.org/karoliina/ontologies/2017/4/Restaurant#Refund 0.25881138 -0.062122174 -0.4019913 1.1043551 0.8162913 1.1288863 -1.1550467 0.3797999 -1.1090729 -0.3096818
http://www.semanticweb.org/karoliina/ontologies/2017/4/Restaurant#Graphicscard 0.4543311 -0.041733377 -0.35883927 1.0670228 0.7421125 1.2330931 -1.0596284 0.3214997 -1.3069826 -0.39041376
inch -0.19976509 -0.14046821 0.18157747 0.87006813 0.48191974 1.1671185 -1.3715814 -0.2336206 -0.8091185 -1.0079159
http://www.semanticweb.org/karoliina/ontologies/2017/4/Restaurant#Windows 0.34176743 -0.124543704 -0.32987007 1.1802485 0.79753935 1.2551326 -1.1014613 0.27232522 -1.1036363 -0.3349614
http://www.semanticweb.org/karoliina/ontologies/2017/4/Restaurant#Crash 0.4126018 -0.1588103 -0.37991443 1.0121493 0.80021536 1.1720483 -1.1254727 0.37034342 -1.1138821 -0.43609014
109 -0.30296654 -0.15258761 0.43360943 0.6769654 0.46382132 1.3355291 -1.2315767 -0.26616296 -0.981302 -1.1222543
carry -0.36605516 0.05184927 0.4154428 0.84681904 0.28535363 1.4122117 -1.3959831 -0.23708802 -0.7586126 -1.4032981
150 -0.24728435 -0.097212136 0.35436347 0.7763554 0.48558998 1.2734835 -1.3189456 -0.20344003 -0.9866733 -1.0434417
http://www.semanticweb.org/karoliina/ontologies/2017/4/Restaurant#Fps 0.27873448 -0.106944665 -0.3745433 1.0583278 0.6721816 1.2037365 -1.124722 0.20647055 -1.1350806 -0.25999787
http://www.semanticweb.org/karoliina/ontologies/2017/4/Restaurant#ControlsNegativeSentiment 0.27121323 -0.018209923 -0.31645772 1.0557123 0.7208673 1.1596875 -1.0741946 0.30849388 -1.2358745 -0.30792075
webcam -0.35583448 -0.018942978 0.33314976 0.7779284 0.28084463 1.4202281 -1.3739132 -0.11094507 -0.7884946 -1.2413796
138 -0.24513614 -0.2095903 0.28579083 0.6881062 0.37230074 1.1785276 -1.3576323 -0.24619292 -1.0626028 -0.9118537
http://www.semanticweb.org/karoliina/ontologies/2017/4/Restaurant#Key 0.26497778 -0.11299889 -0.27858374 1.0243046 0.6408335 1.1944332 -1.015487 0.20447636 -1.2192523 -0.474674
http://www.semanticweb.org/karoliina/ontologies/2017/4/Restaurant#Dollar 0.34160307 -0.12025651 -0.42405587 1.1751964 0.7884958 1.1508622 -1.146137 0.27171656 -1.2254074 -0.25659636
virus -0.159123 -0.27298102 0.110220104 0.7759153 0.4797958 1.0404614 -1.3432136 -0.28260636 -1.0014583 -0.7461287
145 -0.22105172 -0.2378112 0.1981122 0.63015234 0.4880787 1.1916255 -1.3174888 -0.27525955 -0.95478445 -0.9438642
movie -0.5126068 0.0313997 0.19371744 0.87149596 0.4957774 1.2808006 -1.3008678 0.010611758 -1.0245218 -1.0424659
132 -0.17734577 -0.04826817 0.26596746 0.7588607 0.34325758 1.3292012 -1.2943889 -0.22898647 -0.89719325 -1.203413
http://www.semanticweb.org/karoliina/ontologies/2017/4/Restaurant#Internet 0.42330524 -0.11852536 -0.42856425 1.0984486 0.7994139 1.1419374 -1.1418082 0.2603506 -1.0893844 -0.44382983
and -0.13384038 -0.24572468 0.32314345 0.7866424 0.6270646 1.0536448 -1.3051962 -0.13250542 -1.130227 -0.8582983
http://www.semanticweb.org/karoliina/ontologies/2017/4/Restaurant#MSI 0.27349487 -0.10153215 -0.32426018 0.9931284 0.7171443 1.1831425 -1.1455346 0.40486693 -1.1922661 -0.23305345
122 -0.17194302 -0.09068807 0.21458124 0.76500094 0.46465075 1.1696186 -1.4078077 -0.1943263 -0.9275871 -1.0880518
http://www.semanticweb.org/karoliina/ontologies/2017/4/Restaurant#Toshiba 0.21554284 -0.00070062425 -0.43692195 0.9937419 0.7618585 1.1355872 -1.1416217 0.37543517 -1.1960998 -0.34568366
99 -0.22446087 -0.07002984 0.33014286 0.64357877 0.47620276 1.3139458 -1.2958995 -0.11118679 -0.8634433 -1.0854566
http://www.semanticweb.org/karoliina/ontologies/2017/4/Restaurant#Benchmark 0.2962857 -0.057462346 -0.3959272 0.9950856 0.7427896 1.2551318 -1.1470916 0.31076533 -1.173963 -0.26382625
http://www.semanticweb.org/karoliina/ontologies/2017/4/Restaurant#Fan 0.44068235 -0.18212342 -0.4188211 1.0334274 0.77560985 1.1708182 -1.0731994 0.23849367 -1.1109394 -0.40774
1746 -0.25354224 -0.05414915 0.22779231 0.7541919 0.48889658 1.3597529 -1.2606539 -0.35496914 -0.77623236 -1.1974332
http://www.semanticweb.org/karoliina/ontologies/2017/4/Restaurant#Size 0.28444293 0.0042691976 -0.30216998 1.0583088 0.65812486 1.2683424 -1.0744756 0.22762461 -1.1326054 -0.2839971
http://www.semanticweb.org/karoliina/ontologies/2017/4/Restaurant#Linux 0.24084602 -0.0806028 -0.25912017 1.1477056 0.7292704 1.1324333 -1.1195558 0.27857602 -1.152851 -0.34062454
http://www.semanticweb.org/karoliina/ontologies/2017/4/Restaurant#Budget 0.38889915 -0.13052914 -0.28886783 1.0448779 0.7766455 1.0594581 -1.1372292 0.40067944 -1.2589791 -0.33964676
143 -0.39180043 -0.1416531 0.2723302 0.7003188 0.5621297 1.1794332 -1.3023897 -0.16635098 -0.98877543 -0.97595066
331 -0.31770292 -0.15683386 0.2500309 0.61911297 0.38040724 1.247647 -1.1543173 -0.09545561 -1.0483439 -1.0230637
http://www.semanticweb.org/karoliina/ontologies/2017/4/Restaurant#Weight 0.37645268 -0.12059981 -0.41337195 0.94806296 0.6441712 1.2322242 -1.1897223 0.3257837 -1.0718936 -0.25573477
116 -0.21431623 -0.11339922 0.40502477 0.7009344 0.39335462 1.2343484 -1.295573 -0.23004843 -1.0224999 -1.1728106
http://www.semanticweb.org/karoliina/ontologies/2017/4/Restaurant#Manufacturer 0.30576628 -0.13560522 -0.4710185 1.1752536 0.68569213 1.0933383 -1.2560477 0.26088968 -1.1376399 -0.23617601
http://www.semanticweb.org/karoliina/ontologies/2017/4/Restaurant#Dell 0.363467 -0.037724685 -0.4792665 1.1548395 0.6779948 1.2215312 -1.1799505 0.39734712 -1.2270818 -0.30870166
trackpad -0.34175828 -0.08456982 0.4156588 0.8528129 0.392903 1.2155204 -1.2737454 -0.27617297 -0.9553884 -1.1196237
http://www.semanticweb.org/karoliina/ontologies/2017/4/Restaurant#SentimentValue 0.22667453 -0.117069416 -0.44233602 1.1970688 0.739466 1.0412468 -1.063354 0.17878604 -1.1925616 -0.36364323
http://www.semanticweb.org/karoliina/ontologies/2017/4/Restaurant#Euro 0.430796 -0.036364045 -0.39035478 1.1522032 0.89425784 1.1832622 -1.0829872 0.40455905 -1.1454667 -0.41832542
http://www.semanticweb.org/karoliina/ontologies/2017/4/Restaurant#$ 0.3504418 -0.07034311 -0.3490354 1.0562274 0.83818173 1.1089272 -1.1627465 0.33095428 -1.2219542 -0.3010405
http://www.semanticweb.org/karoliina/ontologies/2017/4/Restaurant#Cable 0.25198588 -0.06941446 -0.41512027 1.1331987 0.7079672 1.0700803 -1.0940914 0.264228 -1.273062 -0.27311584
2080 -0.19245239 -0.23358719 0.13229148 0.6811976 0.6513398 0.98605275 -1.3729848 -0.14971901 -0.9485728 -0.92426085
http://www.semanticweb.org/karoliina/ontologies/2017/4/Restaurant#Ssd 0.20750013 -0.16053893 -0.23436579 0.8835676 0.6907884 1.069585 -1.154925 0.14229473 -1.0899055 -0.4168555
http://www.semanticweb.org/karoliina/ontologies/2017/4/Restaurant#Ram 0.29358488 -0.15459645 -0.3574375 1.0282187 0.72417265 1.1601912 -1.0608265 0.05508733 -1.0981678 -0.41954052
http://www.semanticweb.org/karoliina/ontologies/2017/4/Restaurant#Game 0.25973397 -0.13212302 -0.36846036 0.9996476 0.75764817 1.0800859 -1.0563884 0.19437617 -1.2211789 -0.31810105
http://www.semanticweb.org/karoliina/ontologies/2017/4/Restaurant#Asus 0.40358287 0.030335585 -0.35184777 1.0995451 0.89719284 1.2163464 -1.1671909 0.34026045 -1.1529475 -0.2589229
http://www.semanticweb.org/karoliina/ontologies/2017/4/Restaurant#Value 0.29188907 -0.16743207 -0.42065755 1.1330509 0.80754054 1.1176738 -1.0719905 0.39719453 -1.2144151 -0.34165743
http://www.semanticweb.org/karoliina/ontologies/2017/4/Restaurant#Charger 0.24598941 -0.1407676 -0.22814731 1.1303537 0.67864656 1.0758083 -1.0355754 0.11516347 -1.1531874 -0.41977674
144 -0.32207313 -0.19479091 0.34161174 0.6233953 0.49653438 1.2195075 -1.3489575 -0.13695744 -0.89561623 -1.0589029
delivery -0.051374264 -0.07477444 0.09724696 0.7395755 0.5718514 1.1446915 -1.4430108 -0.27549037 -0.6105025 -1.2384785
http://www.semanticweb.org/karoliina/ontologies/2017/4/Restaurant#Defect 0.24297307 -0.08797229 -0.3978795 1.0413793 0.6685738 1.1744623 -1.117179 0.20464253 -1.1606652 -0.29617873
http://www.semanticweb.org/karoliina/ontologies/2017/4/Restaurant#Brand 0.26731196 -0.100735456 -0.45070344 1.2196712 0.8639972 1.2209675 -1.2180504 0.4024814 -1.1484619 -0.24017286
http://www.semanticweb.org/karoliina/ontologies/2017/4/Restaurant#Macbook 0.21917485 -0.06564891 -0.23648612 0.9520988 0.76093805 1.0655419 -1.1349107 0.14439502 -1.087968 -0.41489863
recovery -0.16842934 -0.2539012 0.23170082 0.73663235 0.43559092 1.0957295 -1.2623421 -0.13374656 -0.9773467 -0.7754783
http://www.semanticweb.org/karoliina/ontologies/2017/4/Restaurant#Overseas 0.3121155 -0.0705903 -0.26873097 1.0931089 0.6621444 1.0628072 -1.1665566 0.16093744 -1.1328114 -0.32263252
http://www.semanticweb.org/karoliina/ontologies/2017/4/Restaurant#Replacement 0.24039595 -0.14167643 -0.32125962 1.2150171 0.66699135 1.3230932 -1.1116097 0.39579794 -1.0849092 -0.24476442
http://www.semanticweb.org/karoliina/ontologies/2017/4/Restaurant#Thread 0.3729199 -0.038584564 -0.34303725 1.1381342 0.6708742 1.1712717 -1.0951427 0.30916697 -1.3302863 -0.29033282
http://www.semanticweb.org/karoliina/ontologies/2017/4/Restaurant#Hp 0.23820247 -0.09874211 -0.3281027 1.0862771 0.73536444 1.1488849 -1.1542519 0.37330443 -1.0514059 -0.31385088
http://www.semanticweb.org/karoliina/ontologies/2017/4/Restaurant#Fast 0.13894102 -0.17406896 -0.25823316 0.9036619 0.61616343 0.9954608 -1.1624799 0.10646217 -1.0204558 -0.5269226
neutral 0.6519244 -0.5131061 -0.37493473 0.11722904 1.2664415 0.6796122 -2.5695724 -1.0436773 -0.6496009 -1.313905
http://www.semanticweb.org/karoliina/ontologies/2017/4/Restaurant#Application 0.19535986 -0.12146937 -0.4507057 1.0617845 0.77610666 0.98879766 -1.0224018 0.11419979 -1.2509502 -0.50172853
http://www.semanticweb.org/karoliina/ontologies/2017/4/Restaurant#Click 0.47935346 -0.10962595 -0.35675353 0.99782926 0.6217549 1.2096336 -1.1278648 0.174245 -1.1175677 -0.29905
http://www.semanticweb.org/karoliina/ontologies/2017/4/Restaurant#Bios 0.24049224 -0.103201866 -0.30869424 1.057449 0.7545069 1.0516715 -1.1644183 0.306225 -1.1583191 -0.3356116
http://www.semanticweb.org/karoliina/ontologies/2017/4/Restaurant#Wait 0.22118872 -0.18074688 -0.39713138 0.9725725 0.73278385 1.1512339 -1.103571 0.19974016 -1.0870605 -0.44214883
http://www.semanticweb.org/karoliina/ontologies/2017/4/Restaurant#Touchpad 0.49142823 -0.14843619 -0.40413055 1.2194917 0.6622434 1.2631649 -1.159563 0.2506333 -1.0589452 -0.28322652
136 -0.17428198 -0.21817449 0.224871 0.6911233 0.5830247 1.2101527 -1.3367641 -0.19157563 -0.95943874 -1.0108017
http://www.semanticweb.org/karoliina/ontologies/2017/4/Restaurant#Notebook 0.38346073 -0.17198493 -0.4859321 1.0645869 0.7560764 1.1963248 -1.0800015 0.18038417 -1.1999973 -0.35474142
key 0.049987286 -0.119867705 0.02827631 0.5990249 0.589531 1.0296177 -1.4187131 -0.3385306 -0.77438694 -0.97203016
125 -0.34111893 -0.25878614 0.34891927 0.70102376 0.5076905 1.2159122 -1.2745681 -0.22686464 -0.9811811 -1.1229191
http://www.semanticweb.org/karoliina/ontologies/2017/4/Restaurant#Video 0.385714 -0.16148053 -0.31746513 1.1169579 0.6667873 1.1868516 -1.1306639 0.25790444 -1.2943293 -0.22562777
http://www.semanticweb.org/karoliina/ontologies/2017/4/Restaurant#Medion 0.29669714 0.00019949806 -0.34407645 0.9339565 0.7533071 1.2033645 -1.1184874 0.19665176 -1.184527 -0.21479817
http://www.semanticweb.org/karoliina/ontologies/2017/4/Restaurant#HeadphoneJack 0.2061696 -0.024033247 -0.38921615 0.9645485 0.7957708 1.1438015 -1.0978601 0.2506518 -1.2347791 -0.29462272
http://www.semanticweb.org/karoliina/ontologies/2017/4/Restaurant#Chipset 0.2112343 0.0013028872 -0.4156773 1.011652 0.7890056 0.97415006 -1.1593481 0.28748208 -1.2586782 -0.3443296
118 -0.22192343 -0.13976417 0.34945604 0.68845963 0.53415453 1.290716 -1.325104 -0.26687676 -0.94540495 -1.0576491
http://www.semanticweb.org/karoliina/ontologies/2017/4/Restaurant#Scroll 0.40646073 -0.27709216 -0.31680363 1.0804181 0.6442008 1.2131884 -1.1227775 0.20397316 -1.0106572 -0.31714508
http://www.semanticweb.org/karoliina/ontologies/2017/4/Restaurant#Cooling 0.424783 -0.19274487 -0.32061693 1.0593761 0.65900373 1.0730175 -1.1886581 0.16261688 -0.94905555 -0.43395165
http://www.semanticweb.org/karoliina/ontologies/2017/4/Restaurant#Terrabyte 0.22932461 -0.20792419 -0.281277 0.9342279 0.6708988 1.1113558 -1.0272552 0.20446804 -1.1754781 -0.38977587
http://www.semanticweb.org/karoliina/ontologies/2017/4/Restaurant#High 0.34966058 -0.010144432 -0.3700498 1.0848582 0.64835495 1.1951905 -1.0882835 0.08190589 -1.2161146 -0.43078429
http://www.semanticweb.org/karoliina/ontologies/2017/4/Restaurant#Apple 0.2992486 0.006527957 -0.46063286 1.0515274 0.6977278 1.228616 -1.1791261 0.41720158 -1.1654291 -0.40044385
2807 -0.26014826 -0.21912627 0.3098056 0.75091773 0.5473204 1.0975757 -1.3024298 -0.2939494 -0.9279045 -1.063337
http://www.semanticweb.org/karoliina/ontologies/2017/4/Restaurant#Acer 0.35767555 -0.03970469 -0.436754 1.0519173 0.7845077 1.1737118 -1.2741868 0.4247608 -1.1432458 -0.28121218
http://www.semanticweb.org/karoliina/ontologies/2017/4/Restaurant#Vga 0.18735611 -0.057171747 -0.44598776 0.98345727 0.7653836 1.1506916 -1.1514752 0.23406357 -1.1221606 -0.3910865
http://www.semanticweb.org/karoliina/ontologies/2017/4/Restaurant#Delivery 0.27331075 -0.06038887 -0.26905158 1.0372467 0.6317999 1.0106257 -1.1625247 0.08772689 -1.1907817 -0.31042877
http://www.semanticweb.org/karoliina/ontologies/2017/4/Restaurant#Lenovo 0.24040027 -0.16250606 -0.38742116 1.0377573 0.74061567 1.0632987 -1.1640468 0.32258308 -1.0787297 -0.2856296
feature -0.29241633 -0.108025335 0.19613145 0.7677404 0.415916 1.1345717 -1.3287348 -0.2370733 -0.94791794 -1.1723126
http://www.semanticweb.org/karoliina/ontologies/2017/4/Restaurant#Low 0.23691827 -0.050090462 -0.3900512 1.0494105 0.67510414 0.9913452 -1.1165931 0.09310408 -1.2221781 -0.4190784
http://www.semanticweb.org/karoliina/ontologies/2017/4/Restaurant#Brightness 0.3438195 -0.07451386 -0.31871685 1.204514 0.64691967 1.1425507 -1.0151517 0.25812712 -1.3040618 -0.3172159
charger -0.3045531 -0.22839108 0.35084453 0.78190684 0.5347608 1.2401545 -1.2331909 -0.17208779 -0.8219399 -1.1776654
http://www.semanticweb.org/karoliina/ontologies/2017/4/Restaurant#Money 0.2839669 -0.06034158 -0.31285018 1.2224125 0.77982056 1.0612996 -1.0740353 0.32906187 -1.2869954 -0.31163585
http://www.semanticweb.org/karoliina/ontologies/2017/4/Restaurant#Favorite 0.34759027 -0.12243926 -0.3018934 1.1299273 0.6390915 1.1082627 -1.146558 0.2351038 -1.0480984 -0.29328623
http://www.semanticweb.org/karoliina/ontologies/2017/4/Restaurant#MicroSd 0.26276773 -0.20008178 -0.40034908 1.030483 0.7972781 1.0786515 -1.0542477 0.1395293 -1.0382224 -0.33830202
237 -0.3527119 -0.0135871405 0.21393085 0.62171024 0.4073775 1.2026492 -1.342915 -0.11193656 -0.9350112 -1.1345494
http://www.semanticweb.org/karoliina/ontologies/2017/4/Restaurant#Hot 0.13557254 -0.08119126 -0.42486355 1.0575658 0.5889299 0.9821706 -1.1309688 0.059557885 -1.1912488 -0.45387122
1738 -0.18803534 -0.118454345 0.3110536 0.6409211 0.52565885 1.1189159 -1.3622866 -0.21129957 -0.91292006 -0.91647506
hinge -0.34923965 -0.12611969 0.36205778 0.75778437 0.5699639 1.3481765 -1.23772 -0.1915198 -0.83965105 -1.0701768
http://www.semanticweb.org/karoliina/ontologies/2017/4/Restaurant#Bug 0.30717915 -0.052075732 -0.44383943 1.071805 0.66541874 1.0525208 -1.1674956 0.28635684 -1.1078798 -0.41841376
170 -0.35675183 -0.015984658 0.36767465 0.87966734 0.39937514 1.1936699 -1.2136086 -0.2586778 -0.9862131 -1.2236137
http://www.semanticweb.org/karoliina/ontologies/2017/4/Restaurant#Cool 0.074995905 -0.16169646 -0.18677422 0.89914584 0.61912274 1.0835862 -1.073288 0.03839848 -1.0336157 -0.39551586
feel -0.36476249 -0.03841338 0.20831579 0.8679707 0.41954282 1.174196 -1.339991 -0.31430858 -0.8806701 -1.1171386
129 -0.21785119 -0.15100615 0.24904877 0.69870406 0.4020918 1.2262982 -1.3780667 -0.2810675 -0.951701 -1.0602584
http://www.semanticweb.org/karoliina/ontologies/2017/4/Restaurant#Plug 0.21962881 -0.16824149 -0.25798795 0.9601851 0.678357 1.0692569 -1.0683931 0.08564575 -1.0151547 -0.43545502
http://www.semanticweb.org/karoliina/ontologies/2017/4/Restaurant#Ok 0.21860608 -0.09217293 -0.34764686 0.92873067 0.600568 1.1068579 -1.0621979 0.1775232 -1.2299837 -0.41385183
http://www.semanticweb.org/karoliina/ontologies/2017/4/Restaurant#4K 0.10377337 -0.08739545 -0.32285342 0.9871034 0.6539038 1.1039906 -1.0190302 0.10194789 -1.0604745 -0.43663678
http://www.semanticweb.org/karoliina/ontologies/2017/4/Restaurant#Neutral 0.18276732 -0.02755765 -0.32778358 1.0756297 0.6925966 0.99351794 -0.97517693 0.24018344 -1.2718661 -0.4370152
http://www.semanticweb.org/karoliina/ontologies/2017/4/Restaurant#Dusty 0.14332406 -0.001073705 -0.33246252 1.0139142 0.63348097 1.010295 -1.0232401 0.053493764 -1.1750202 -0.49777466
pad -0.31684473 -0.25103095 0.44487497 0.71325177 0.41602257 1.2618947 -1.443308 -0.19423768 -0.87160635 -1.2075738
1438 -0.22849199 -0.09853658 0.3337093 0.7225594 0.42028302 1.2129601 -1.3513514 -0.31497815 -0.9103067 -1.1629577
http://www.semanticweb.org/karoliina/ontologies/2017/4/Restaurant#Program 0.20278022 -0.09672848 -0.42222753 1.0334761 0.6688171 1.0857964 -1.0350271 0.27016717 -1.1720669 -0.39540672
http://www.semanticweb.org/karoliina/ontologies/2017/4/Restaurant#Loud 0.3155994 -0.07056429 -0.3010744 1.0327451 0.5784137 1.1047133 -1.1639234 0.21533187 -1.1229719 -0.29072982
online -0.20941472 -0.21398771 0.11394179 0.6250897 0.49881497 1.1074201 -1.2322277 -0.10641853 -0.96697754 -0.9083259
http://www.semanticweb.org/karoliina/ontologies/2017/4/Restaurant#Hold 0.114070944 -0.019567862 -0.30447215 0.84339637 0.721694 1.0922921 -1.0073794 0.18685696 -1.1580477 -0.4368886
2649 -0.31235263 -0.059114598 0.16660006 0.67070067 0.51773137 1.2421448 -1.2762363 -0.20866546 -0.8837525 -1.0683413
http://www.semanticweb.org/karoliina/ontologies/2017/4/Restaurant#Ios 0.28734797 -0.09163035 -0.342152 0.980663 0.81066346 1.1171167 -1.0369074 0.24535024 -1.0807774 -0.4231058
http://www.semanticweb.org/karoliina/ontologies/2017/4/Restaurant#Jack 0.23691577 -0.12520942 -0.35352919 0.96072626 0.823498 1.0842881 -1.0769825 0.16740325 -1.2519163 -0.28947565
mousepad -0.30034503 -0.17572108 0.30092168 0.87519395 0.52913594 1.1804007 -1.2595708 -0.28418773 -0.84983635 -1.0121907
http://www.semanticweb.org/karoliina/ontologies/2017/4/Restaurant#Silent 0.13417344 -0.08115006 -0.38587317 0.9606406 0.61970484 1.02604 -1.1367427 0.038129237 -1.1451061 -0.4233606
http://www.semanticweb.org/karoliina/ontologies/2017/4/Restaurant#Letter 0.20573616 -0.118057914 -0.2851153 0.94233483 0.6401208 1.1319932 -1.0437807 0.014044447 -1.0755235 -0.3912149
http://www.semanticweb.org/karoliina/ontologies/2017/4/Restaurant#Usb 0.19193286 0.041717645 -0.47407988 1.1690139 0.7372188 1.1513535 -1.1022533 0.16529183 -1.0998864 -0.31480792
http://www.semanticweb.org/karoliina/ontologies/2017/4/Restaurant#Look 0.24543457 -0.20079036 -0.31272677 1.0130813 0.60527307 1.1386589 -1.0431399 0.15698852 -1.1634045 -0.2950776
1372 -0.19888115 -0.26799828 0.26280037 0.69288117 0.4557268 1.1387299 -1.2421072 -0.19320613 -0.9118826 -0.96174526
http://www.semanticweb.org/karoliina/ontologies/2017/4/Restaurant#Ethernet 0.15560979 -0.007571373 -0.50294834 0.97171605 0.6993093 1.0853231 -1.0936444 0.15648924 -1.2022812 -0.31768233
151 -0.26396847 -0.028670589 0.2452138 0.77903634 0.3610531 1.2832989 -1.3324033 -0.42871413 -0.80097455 -1.1447732
834 -0.26904222 -0.14324003 0.20644611 0.73642796 0.48289102 1.1284527 -1.3372415 -0.25094825 -0.8530198 -1.089411
drivers -0.2776547 -0.09974182 0.28934622 0.73567706 0.46176758 1.2730776 -1.3718694 -0.18852189 -0.9196484 -0.8981441
http://www.semanticweb.org/karoliina/ontologies/2017/4/Restaurant#Detail 0.39677754 -0.19126108 -0.30062464 0.9208874 0.699512 1.2129042 -0.98628616 0.3086014 -1.2226014 -0.371556
life_20_32 -0.27143487 -0.18295546 0.35285008 0.6351566 0.5102053 1.1269091 -1.1782154 -0.21989258 -0.8982299 -0.88838464
supply 0.5285784 -0.5315802 -0.09655246 0.214891 0.6735318 0.9127291 -1.9641666 -0.70840776 -0.7268027 -1.1256372
processing -0.26468033 -0.30837676 0.21237834 0.7946111 0.53553 1.0738868 -1.3169417 -0.07489092 -0.9785359 -0.85258913
1749 -0.271747 -0.18276316 0.20809425 0.6963057 0.5934396 1.1703033 -1.2535251 -0.16291627 -0.9830514 -0.8895048
http://www.semanticweb.org/karoliina/ontologies/2017/4/Restaurant#Layout 0.18379068 -0.15654346 -0.2302581 0.9019714 0.62607265 1.0437099 -1.0888381 0.05941782 -1.0578983 -0.47291502
147 -0.29102188 -0.20101488 0.22354364 0.7134375 0.42752722 1.1928018 -1.3470128 -0.2994349 -0.9625229 -0.96113867
hd -0.12369491 -0.1464526 0.4177155 0.7517199 0.38475823 1.1536841 -1.3918765 -0.19565313 -0.88793033 -1.058956
552 -0.18092363 -0.097725235 0.24190399 0.66424024 0.48467028 1.2205168 -1.4478207 -0.3626598 -0.7384424 -1.1672709
http://www.semanticweb.org/karoliina/ontologies/2017/4/Restaurant#Wire 0.31801224 -0.08226939 -0.30171472 1.074141 0.71289706 0.99887484 -1.1422248 0.060204692 -1.1530354 -0.34690964
2272 -0.52845234 -0.21313785 0.32378125 0.873469 0.28259867 1.2803041 -1.3380424 -0.004965816 -0.9164508 -0.8766673
year -0.17183131 -0.28315875 0.274875 0.73886496 0.5089044 1.1553167 -1.3197844 -0.13442887 -0.9812508 -0.766539
home -0.6416737 -0.23263352 0.14667831 0.9027954 0.48406002 1.2196096 -1.3374909 0.03757458 -0.9356563 -0.92746985
http://www.semanticweb.org/karoliina/ontologies/2017/4/Restaurant#Style 0.2731373 -0.17209725 -0.40597296 0.9170758 0.760935 1.113377 -1.000547 0.2578023 -1.2033608 -0.3981606
ms -0.22214878 -0.2998903 0.19657241 0.7115812 0.52302504 1.0891722 -1.2295928 -0.21802938 -0.9691014 -0.8673366
http://www.semanticweb.org/karoliina/ontologies/2017/4/Restaurant#Hdmi 0.19299522 -0.011753547 -0.47537008 1.0416188 0.7390817 1.0557805 -1.1335416 0.15817073 -1.0865034 -0.34135032
1811 -0.26047045 -0.3085544 0.23530552 0.768385 0.5358438 1.1563762 -1.2446549 -0.27883282 -0.85716677 -0.98946714
http://www.semanticweb.org/karoliina/ontologies/2017/4/Restaurant#Error 0.32229084 -0.08244673 -0.33520326 1.0415173 0.6495884 1.041711 -1.2096758 0.18226375 -0.9986185 -0.39419556
114 -0.23754467 -0.25061294 0.32690448 0.6493189 0.5594794 1.1209266 -1.4250109 -0.20512368 -0.9060455 -0.9660559
http://www.semanticweb.org/karoliina/ontologies/2017/4/Restaurant#Light 0.28594446 0.0105666965 -0.31259188 1.0151561 0.6513487 1.0393947 -1.1858804 0.10623514 -1.0779879 -0.44743675
1417 -0.3055255 -0.22757733 0.19576032 0.6317821 0.37730014 1.2520483 -1.2566069 -0.20675056 -0.8869725 -0.9549402
http://www.semanticweb.org/karoliina/ontologies/2017/4/Restaurant#Voltage 0.30927 -0.22028019 -0.23019013 0.98459244 0.57095635 1.0325421 -1.0451976 0.07786642 -1.1203414 -0.4112694
119 -0.19679248 -0.05874618 0.18792337 0.61869 0.44692236 1.1168576 -1.4681292 -0.22795966 -0.9785025 -1.0199707
http://www.semanticweb.org/karoliina/ontologies/2017/4/Restaurant#ugly 0.24650794 -0.102129534 -0.36499268 0.96831286 0.56165004 1.0668322 -1.0881348 0.014836408 -0.98796475 -0.42919925
http://www.semanticweb.org/karoliina/ontologies/2017/4/Restaurant#Bulky 0.123838305 -0.04970632 -0.36965385 1.0149248 0.6783861 0.95435506 -1.0360812 0.12749659 -1.09868 -0.4828226
374 -0.18897901 -0.1934051 0.28500378 0.60546255 0.38355765 1.2577091 -1.2165166 -0.2681799 -0.9524206 -0.9542732
2470 -0.2413462 -0.24506763 0.3414199 0.6614205 0.4503222 1.11674 -1.2211645 -0.25556546 -0.8184634 -0.967627
http://www.semanticweb.org/karoliina/ontologies/2017/4/Restaurant#Clunky 0.23800078 -0.21619797 -0.22360998 0.975215 0.620467 0.92813003 -1.0349176 0.10363967 -0.98288476 -0.4465321
http://www.semanticweb.org/karoliina/ontologies/2017/4/Restaurant#Sharp 0.20045815 -0.07971437 -0.23367038 0.9962138 0.543948 1.0334669 -0.998613 0.22513914 -1.137963 -0.45630363
http://www.semanticweb.org/karoliina/ontologies/2017/4/Restaurant#Nice 0.26349714 -0.01629095 -0.22946104 0.8943927 0.5485213 1.0103434 -1.1012597 0.2275993 -1.1795964 -0.29481262
1436 -0.13910411 -0.15211846 0.2841648 0.65506804 0.5098092 1.102779 -1.3216035 -0.1829272 -0.93490434 -0.89257514
http://www.semanticweb.org/karoliina/ontologies/2017/4/Restaurant#Slow 0.13605031 -0.11382606 -0.30245093 0.9388652 0.66709524 1.0189582 -1.016208 0.05980616 -1.0686969 -0.4227899
http://www.semanticweb.org/karoliina/ontologies/2017/4/Restaurant#Broken 0.19257157 -0.1502336 -0.28952014 1.0863509 0.5720815 1.0586632 -1.0308795 0.08932253 -1.1237211 -0.31810683
my -0.039478324 -0.2847275 0.012167901 0.6719685 0.57672215 1.0120662 -1.363651 -0.2998467 -1.18466 -0.8824341
up -0.1759906 -0.29697272 0.018673765 0.7831262 0.52745384 0.9087892 -1.3600281 -0.14104812 -1.1495274 -0.85220027
case -0.21804428 -0.06782463 0.18712 0.8266231 0.50795597 1.1451684 -1.2429866 -0.3250541 -0.91757196 -0.99274886
131 -0.2780667 -0.15173897 0.32568732 0.67442155 0.48157275 1.1160216 -1.3323448 -0.2419187 -1.0489184 -0.9087518
safari -0.23972546 -0.16626057 0.21317002 0.78840095 0.45893753 1.2292918 -1.3091912 -0.07863253 -0.9626298 -0.9641206
http://www.semanticweb.org/karoliina/ontologies/2017/4/Restaurant#Horrid 0.2067166 -0.12985165 -0.36610597 1.0708214 0.72746915 1.0410236 -0.99565494 0.12601389 -1.124604 -0.32533062
http://www.semanticweb.org/karoliina/ontologies/2017/4/Restaurant#Blurry 0.2604711 -0.020923242 -0.26891604 1.0852792 0.6525354 1.0424539 -1.1227682 0.1471797 -1.0630175 -0.43771484
1799 -0.18452 -0.32581657 0.17203882 0.51459104 0.5987495 0.9884233 -1.3793705 -0.28342777 -0.7925773 -0.7740231
http://www.semanticweb.org/karoliina/ontologies/2017/4/Restaurant#Premium 0.28506395 -0.1853511 -0.38772 0.98128265 0.67262125 1.1212907 -1.0153666 0.08235196 -1.1596051 -0.25999382
http://www.semanticweb.org/karoliina/ontologies/2017/4/Restaurant#Glare 0.2791349 -0.0774069 -0.38054404 0.91012263 0.5300009 1.093425 -1.0267757 0.13689505 -1.1787288 -0.3800964
http://www.semanticweb.org/karoliina/ontologies/2017/4/Restaurant#Inexpensive 0.09251769 -0.07361001 -0.18339935 0.9554527 0.67152333 1.0114243 -1.0827439 0.04089598 -0.97496516 -0.3418488
tunes -0.4942573 0.08361382 0.20888299 0.88977253 0.40345934 1.4078267 -1.3582615 -0.16173778 -0.9304718 -1.142171
http://www.semanticweb.org/karoliina/ontologies/2017/4/Restaurant#Perfect 0.14074937 -0.035495892 -0.22966497 0.83420116 0.44653162 0.9249784 -1.0244076 0.06571693 -1.0732028 -0.40027305
context 0.6717975 -0.41724148 -0.29529357 0.06819602 0.94718176 0.7880091 -2.1744769 -0.7115098 -0.7105885 -1.1924067
123 -0.27776036 -0.14112574 0.3057121 0.7458742 0.44453123 1.2075571 -1.298309 -0.11616649 -0.88772106 -0.97856146
dependent 0.66298246 -0.38714078 -0.32144028 0.14511292 1.0005265 0.67619395 -2.3540938 -0.81491286 -0.63836914 -1.2301733
http://www.semanticweb.org/karoliina/ontologies/2017/4/Restaurant#Awesome 0.2779379 -0.06589168 -0.23233503 0.954258 0.523034 0.89236575 -1.087669 0.09998329 -1.12694 -0.40317866
337 -0.2965721 -0.18836163 0.31181166 0.7560721 0.4983571 1.138058 -1.1650673 -0.14811681 -0.98591346 -0.9478625
http://www.semanticweb.org/karoliina/ontologies/2017/4/Restaurant#Mediocre 0.3066297 -0.07861434 -0.30811775 1.0820054 0.5373638 1.0651265 -1.0485591 0.15723485 -1.1397021 -0.38754886
158 -0.21099447 -0.3002297 0.29603451 0.57310873 0.5049056 1.0502962 -1.3822997 -0.22348626 -0.84905833 -0.8700217
http://www.semanticweb.org/karoliina/ontologies/2017/4/Restaurant#Bargain 0.17330828 -0.108502395 -0.18292022 0.86729294 0.6677835 0.90152717 -1.0802689 0.05805884 -1.119259 -0.31811917
1496 -0.1675757 -0.14057048 0.4202346 0.7812889 0.44286665 1.3174658 -1.2320311 -0.22787565 -0.78330344 -1.0401839
2757 -0.06882848 -0.1219364 0.2078882 0.703672 0.45904204 1.1643729 -1.388337 -0.14949855 -0.8778687 -1.0000334
2001 -0.24357168 -0.16761108 0.36010256 0.7421279 0.46091715 1.1118189 -1.2165937 -0.10604365 -0.9241139 -0.9795329
452 -0.3459543 -0.13132334 0.33503342 0.75169176 0.41706058 1.3234775 -1.1788074 -0.08646303 -0.7951347 -1.1049514
1047 -0.15431593 -0.32436863 0.24975704 0.6983563 0.49316755 1.1121083 -1.2841575 -0.1621488 -0.81832397 -0.8234889
navigate -0.16708553 -0.11239748 0.3962787 0.7455134 0.45340544 1.2081412 -1.3552294 -0.23837872 -0.8155887 -1.1351173
1548 -0.20843983 -0.1280492 0.25237846 0.66793805 0.40270492 1.2064228 -1.381727 -0.20744048 -0.8219035 -1.1340102
http://www.semanticweb.org/karoliina/ontologies/2017/4/Restaurant#Thin 0.18540716 -0.12040037 -0.34624937 0.9990736 0.67377096 0.9805258 -0.9755122 0.131179 -1.1483108 -0.36631936
2100 -0.28385305 -0.14023294 0.35663188 0.7848882 0.31060013 1.2986056 -1.1621213 -0.1639504 -0.90199286 -0.96457154
133 -0.22215582 -0.2220858 0.2458931 0.7239224 0.48472285 1.1945869 -1.2680929 -0.25443646 -1.0934669 -0.7803694
http://www.semanticweb.org/karoliina/ontologies/2017/4/Restaurant#Phenomenal 0.35154843 -0.06659723 -0.41431832 1.0979952 0.55146366 1.027989 -1.0968167 0.055798486 -1.0944188 -0.32445514
391 -0.30681226 -0.09129615 0.13897891 0.7070445 0.4505048 1.1464477 -1.2248175 -0.2528171 -0.96343714 -1.0524224
1068 -0.28414893 -0.21385294 0.18380205 0.85906965 0.42453736 1.1343564 -1.202696 -0.12523435 -0.86137563 -1.004297
2588 -0.21101475 -0.048951406 0.17391962 0.7345145 0.3793679 1.1663523 -1.3085457 -0.2047672 -0.8921435 -1.0912657
687 -0.25859684 -0.07407935 0.3603214 0.64631206 0.39781135 1.130935 -1.2879863 -0.14936832 -0.82383114 -1.0950168
http://www.semanticweb.org/karoliina/ontologies/2017/4/Restaurant#Great 0.24025677 -0.097795345 -0.19934262 0.9416176 0.47650492 1.0302199 -1.088982 0.09408177 -0.97587365 -0.36044475
mic -0.30608553 -0.2047442 0.24965596 0.6298719 0.5267795 1.0637559 -1.2861742 -0.12626104 -1.0437454 -0.9148693
146 -0.15337963 -0.3098191 0.22325636 0.61114836 0.54665977 1.1275072 -1.3068628 -0.17404675 -0.9354594 -0.8546463
http://www.semanticweb.org/karoliina/ontologies/2017/4/Restaurant#Powerful 0.119420506 -0.105514646 -0.30332255 0.96054095 0.62102 1.0490816 -0.9774296 0.013912684 -1.1013155 -0.27180147
917 -0.2303251 -0.28270972 0.16399463 0.77213466 0.4152158 1.0403173 -1.2484748 -0.21877435 -0.97420186 -1.0473534
354 -0.25789687 -0.091569215 0.3137418 0.68648005 0.37393472 1.0465629 -1.2673151 -0.2625199 -0.962691 -0.9990482
http://www.semanticweb.org/karoliina/ontologies/2017/4/Restaurant#Amazing 0.35572517 0.0018801285 -0.37771308 1.1753204 0.6964752 1.1025121 -0.9936846 0.0792471 -1.1496845 -0.40269816
1075 -0.1531821 -0.16135268 0.21192214 0.6142471 0.51800036 1.1034459 -1.2235022 -0.100820966 -0.98707706 -0.8315716
http://www.semanticweb.org/karoliina/ontologies/2017/4/Restaurant#Innovative 0.2711848 -0.08062348 -0.3133338 1.0340496 0.60358745 0.98684573 -1.010824 0.17631122 -1.1395769 -0.424997
specs -0.30878633 -0.27616572 0.2552964 0.76955223 0.49167252 1.1334392 -1.2378321 -0.12108459 -1.0114294 -1.0510541
http://www.semanticweb.org/karoliina/ontologies/2017/4/Restaurant#Heavy 0.17220016 -0.014412716 -0.23302035 1.0212452 0.60686284 0.9599449 -1.0476931 0.20171238 -1.1392944 -0.39824948
http://www.semanticweb.org/karoliina/ontologies/2017/4/Restaurant#HalfDecent 0.10304882 -0.16015822 -0.29158878 0.88072383 0.6173542 1.1338978 -1.0980685 0.1940904 -1.0191166 -0.31029117
1745 -0.25869986 -0.12320492 0.32850996 0.7975824 0.43821788 1.1432307 -1.2755922 -0.111256346 -0.85599923 -0.94056994
2573 -0.43685323 -0.14679445 0.26725888 0.76405156 0.37985232 1.1987418 -1.2999679 -0.16935766 -0.8910721 -0.97300076
http://www.semanticweb.org/karoliina/ontologies/2017/4/Restaurant#Clear 0.32542345 -0.1613087 -0.3008508 0.9700993 0.6671072 1.0920199 -0.9759616 0.152831 -1.1245028 -0.3751802
http://www.semanticweb.org/karoliina/ontologies/2017/4/Restaurant#Decent 0.17427135 -0.08280328 -0.41920856 0.9678137 0.62809557 0.92485714 -1.0620748 0.20750317 -1.1644578 -0.42755935
128 -0.1648449 -0.14129627 0.28824738 0.70278144 0.603625 1.0965421 -1.2186217 -0.09341283 -0.980608 -0.923216
edges -0.1947793 -0.0752053 0.24068081 0.7525376 0.4974156 1.210934 -1.3761665 -0.115919985 -0.9482751 -0.91678506
2221 -0.37893623 -0.11371636 0.1569772 0.7231891 0.40400147 1.1821384 -1.2309066 -0.045258056 -1.0767707 -0.87803817
1743 -0.13947764 -0.1498038 0.19493438 0.6046881 0.47299492 1.1429846 -1.2463726 -0.27474216 -0.9277852 -0.9545466
http://www.semanticweb.org/karoliina/ontologies/2017/4/Restaurant#Crashing 0.17083007 0.006655627 -0.29214036 0.9783622 0.70936966 1.0080167 -1.0215911 0.07999111 -1.1881194 -0.4177525
2005 -0.2561237 -0.09444293 0.26840943 0.8445528 0.44856852 1.1652793 -1.2314328 -0.1394399 -0.9514903 -1.0010031
1531 -0.2631798 -0.13979402 0.27631643 0.7002294 0.41265336 1.1188235 -1.2466475 -0.19630112 -0.94244385 -0.94129294
388 -0.30857217 -0.14280742 0.17165844 0.7014022 0.47062254 1.1851057 -1.1964146 -0.15215842 -0.967499 -1.012904
http://www.semanticweb.org/karoliina/ontologies/2017/4/Restaurant#New 0.24021918 -0.110427655 -0.22684729 0.9941673 0.54155385 0.92180604 -1.1972083 0.12395777 -1.0230641 -0.36587065
http://www.semanticweb.org/karoliina/ontologies/2017/4/Restaurant#Buggy 0.2282268 -0.042912308 -0.27826738 0.8770791 0.64403534 1.0295991 -1.0839075 0.05879129 -1.0484977 -0.42006946
1867 -0.36387482 -0.17052664 0.24125822 0.6357079 0.35010985 1.197431 -1.3013694 -0.026631162 -0.95883065 -0.82718396
2236 -0.2787673 -0.27431497 0.3268075 0.81638795 0.4972032 1.1208153 -1.2565777 -0.19429696 -0.8881277 -0.9449858
budget 0.076375626 -0.20199607 0.23803122 0.6379826 0.4149237 1.1295897 -1.4802506 -0.19351755 -0.8208546 -1.0185165
1623 -0.36597592 -0.25494948 0.20906067 0.7745929 0.39079407 1.0762584 -1.2534777 -0.14974111 -0.9472763 -0.74996287
http://www.semanticweb.org/karoliina/ontologies/2017/4/Restaurant#Best 0.25895396 -0.022235788 -0.35260737 0.94110155 0.5829688 1.0453106 -1.0905873 0.024696637 -1.2735556 -0.36974114
2231 -0.09906821 -0.24208196 0.265347 0.605087 0.45133793 1.2028453 -1.296911 -0.29436705 -0.8479216 -0.98502564
http://www.semanticweb.org/karoliina/ontologies/2017/4/Restaurant#Useful 0.22054838 -0.1045099 -0.21469209 1.0103194 0.5396434 0.9940859 -1.0160491 0.10228503 -1.1006979 -0.45522535
http://www.semanticweb.org/karoliina/ontologies/2017/4/Restaurant#Excellent 0.17316705 -0.060086124 -0.22486772 1.016353 0.53757787 0.93653774 -1.1090012 0.102698416 -1.071222 -0.26020437
http://www.semanticweb.org/karoliina/ontologies/2017/4/Restaurant#Vivid 0.25859353 -0.22549756 -0.221866 0.9046889 0.4928134 0.9773542 -1.0797945 0.07186314 -1.031914 -0.41378886
http://www.semanticweb.org/karoliina/ontologies/2017/4/Restaurant#Moderate 0.18140462 -0.1302822 -0.2009113 0.8390597 0.46683252 0.95201164 -1.0775594 0.12775123 -1.099264 -0.40038186
152 -0.15202045 -0.31764007 0.23071839 0.7322433 0.52025795 1.0622061 -1.3320168 -0.11057138 -0.84699446 -0.9958864
http://www.semanticweb.org/karoliina/ontologies/2017/4/Restaurant#Beautiful 0.14764975 -0.09817235 -0.29218858 0.87710667 0.65838915 0.95818657 -1.0818113 0.039915364 -0.95754516 -0.5564785
http://www.semanticweb.org/karoliina/ontologies/2017/4/Restaurant#Affordable 0.25140032 -0.1639717 -0.3647718 0.9913135 0.5634136 1.0580794 -1.0540968 0.041637152 -1.0437127 -0.2617163
176 -0.2761413 -0.072063535 0.3089763 0.828676 0.50623405 1.2303052 -1.2625403 -0.145094 -0.9293071 -1.000562
http://www.semanticweb.org/karoliina/ontologies/2017/4/Restaurant#Wireless 0.26908717 -0.009418782 -0.36329785 1.1325568 0.6408414 0.9397329 -0.98711795 0.12591566 -1.244932 -0.452466
layout -0.024309212 -0.0021179959 0.045960274 0.7377258 0.4205134 1.1518852 -1.4995073 -0.2786328 -0.7991232 -0.8474412
http://www.semanticweb.org/karoliina/ontologies/2017/4/Restaurant#Cheap 0.18868557 -0.15970907 -0.36812735 1.0188648 0.52529365 1.0418606 -1.0428799 0.0461548 -1.0662321 -0.2685451
2644 -0.2071862 -0.25253904 0.24961774 0.72728676 0.40871033 1.0734587 -1.2406237 -0.15872438 -0.9018141 -0.8671549
http://www.semanticweb.org/karoliina/ontologies/2017/4/Restaurant#Fabulous 0.2715645 -0.13746499 -0.31974155 0.9656158 0.50480276 1.0424564 -1.0646955 0.13298282 -1.1491661 -0.35872585
http://www.semanticweb.org/karoliina/ontologies/2017/4/Restaurant#Enjoyable 0.22275668 -0.105262235 -0.2807735 0.963458 0.59726864 1.0020354 -1.0469375 0.18422972 -1.0559232 -0.3908713
buttons -0.27496895 -0.037509874 0.26689988 0.706156 0.4170016 1.2604063 -1.3851223 -0.15834798 -0.8256565 -0.9939998
http://www.semanticweb.org/karoliina/ontologies/2017/4/Restaurant#Bad 0.099568345 -0.1156221 -0.27256683 0.9695715 0.68159205 0.9829503 -1.0675546 0.14287469 -1.0361325 -0.3472979
1937 -0.26184785 -0.17180239 0.08310176 0.7164452 0.5539835 1.008156 -1.2633184 -0.10999659 -1.0081592 -0.9032654
running -0.20303893 -0.36131027 0.16005284 0.6684286 0.55154467 1.0996835 -1.2157137 -0.21586886 -0.9568984 -0.85314584
http://www.semanticweb.org/karoliina/ontologies/2017/4/Restaurant#Old 0.12971501 -0.17619494 -0.3951783 1.0012883 0.54653305 1.0057236 -1.0251794 0.038107824 -1.062867 -0.4409851
141 -0.23651356 -0.21173546 0.26387936 0.6153377 0.5176104 1.122346 -1.292669 -0.18095297 -0.98053813 -0.8293265
dell 0.075562336 -0.3715803 0.076608896 0.6645028 0.6540574 0.9847736 -1.3947262 -0.13665901 -0.8556287 -0.7610593
1373 -0.2537252 -0.08766314 0.19632329 0.7855498 0.34503365 1.2173904 -1.2405136 -0.054145694 -0.95540756 -0.9394787
http://www.semanticweb.org/karoliina/ontologies/2017/4/Restaurant#Pleasant 0.07911404 -0.21685323 -0.13183607 0.90633386 0.54965097 0.96681607 -1.1224687 0.16265608 -0.9507637 -0.29186288
120 -0.20595689 -0.19119458 0.28869048 0.6504745 0.54004383 1.0154477 -1.3023144 -0.24114324 -0.9012192 -1.0137563
http://www.semanticweb.org/karoliina/ontologies/2017/4/Restaurant#Reasonably 0.17357771 -0.08387787 -0.33510888 0.99767655 0.6496035 1.0343592 -1.0470462 0.091748975 -1.0287683 -0.40408266
xp -0.3405547 -0.17935814 0.3433812 0.7257494 0.4760464 1.1877179 -1.4192926 -0.047676962 -0.92625993 -0.97561526
2497 -0.2260391 -0.17586932 0.20616904 0.62796915 0.42120486 1.2178568 -1.2615681 -0.2138677 -0.8653623 -0.9046021
1535 -0.15078197 -0.09797905 0.20105988 0.5864358 0.5756846 1.0021788 -1.3396871 -0.17358011 -0.91649944 -0.9330892
hdmi 0.13587071 -0.31237206 0.05066622 0.6282855 0.5142111 0.948367 -1.3607957 -0.2830163 -0.9209464 -0.80941397
multi -0.14213827 -0.40336654 0.26188383 0.6509088 0.52900535 1.0397164 -1.2692049 -0.056729224 -1.0477488 -0.89291835
3058 -0.096003726 -0.21422693 0.34677702 0.5986627 0.4031836 0.99005115 -1.3746781 -0.2868971 -0.81718725 -1.1124243
http://www.semanticweb.org/karoliina/ontologies/2017/4/Restaurant#Handy 0.2848779 -0.1461058 -0.40167952 0.9628573 0.50652623 0.98438793 -1.0667003 0.10940686 -1.073205 -0.51682734
2962 -0.26793236 -0.2592462 0.16591178 0.57031226 0.47723347 1.1026996 -1.3262272 -0.23347078 -0.897653 -0.92672217
http://www.semanticweb.org/karoliina/ontologies/2017/4/Restaurant#Creative 0.22335964 -0.11013005 -0.39341432 0.96368337 0.60461015 1.124694 -1.0101496 0.10454329 -1.0960693 -0.38401532
http://www.semanticweb.org/karoliina/ontologies/2017/4/Restaurant#Good 0.1613574 -0.18724556 -0.2135877 1.0765942 0.61378455 1.0529577 -1.0404984 0.15470527 -1.0864284 -0.26492238
http://www.semanticweb.org/karoliina/ontologies/2017/4/Restaurant#Horrible 0.22788703 -0.21655229 -0.28653225 1.0283283 0.58965904 0.9540721 -0.9913689 0.13163432 -1.0189788 -0.4274383
port -0.25220937 -0.1269321 0.044128332 0.8802423 0.50937945 0.98781806 -1.2396514 -0.11934515 -0.9089184 -0.9109254
1595 -0.16642366 -0.24095924 0.15318987 0.7240698 0.5263132 0.91344583 -1.2278919 -0.07768137 -0.9465397 -0.79639107
http://www.semanticweb.org/karoliina/ontologies/2017/4/Restaurant#Colorful 0.2450228 -0.06633377 -0.22326131 0.8850102 0.5850853 0.97168404 -1.064251 0.14334008 -1.0780984 -0.38604844
linux -0.0043753707 -0.21728615 0.16243973 0.56422615 0.49045828 1.1908079 -1.3399816 -0.34902468 -0.83717686 -1.0113771
1887 -0.19740146 -0.11223326 0.23125073 0.5975968 0.53706247 1.0377187 -1.2804024 -0.092485376 -0.90833193 -0.9362353
http://www.semanticweb.org/karoliina/ontologies/2017/4/Restaurant#Unique 0.20700632 -0.10339613 -0.39283288 1.0563446 0.6037431 1.0307518 -1.0691496 0.14163846 -1.1200973 -0.2526296
http://www.semanticweb.org/karoliina/ontologies/2017/4/Restaurant#Terrible 0.1590373 -0.12712261 -0.22449741 0.87175214 0.6851751 1.0466993 -1.0392245 0.1765724 -0.99023813 -0.37029603
http://www.semanticweb.org/karoliina/ontologies/2017/4/Restaurant#Antiglare 0.2617446 -0.13690902 -0.2348861 0.9590053 0.6397183 0.94831556 -0.99529266 0.04679361 -1.0607021 -0.498083
1984 -0.27805197 -0.16365163 0.2859764 0.62182987 0.43056142 1.1601473 -1.1937681 -0.25353387 -0.9535953 -0.9192462
http://www.semanticweb.org/karoliina/ontologies/2017/4/Restaurant#Wonderful 0.24171385 -0.11298514 -0.3503353 0.95516056 0.56588185 1.0713818 -1.1134613 0.21685442 -1.0446305 -0.29535612
build -0.16372137 -0.257745 0.14871375 0.7536877 0.40794942 1.0717708 -1.24825 -0.077205405 -0.8658649 -0.9629935
3042 -0.23600657 -0.3022418 0.19216406 0.5664477 0.47240826 0.8984104 -1.3115587 -0.19409803 -0.9290879 -0.64002466
garage -0.27002338 -0.22573173 0.21225019 0.7965414 0.5929139 1.0184417 -1.2536753 -0.12133529 -1.0992377 -0.8880083
iphoto -0.19051257 -0.039274562 0.23887691 0.79203534 0.460255 1.2204316 -1.3279107 -0.21467802 -0.7583597 -1.1011707
1757 -0.18912204 -0.18063928 0.16827641 0.7041512 0.43074226 1.0346076 -1.3520262 -0.11712573 -0.77876353 -0.9291108
2465 -0.22468233 -0.124661215 0.13948947 0.71817935 0.4825134 1.1620888 -1.3149918 -0.14803766 -0.8937312 -0.8209458
400 -0.30340034 -0.06843963 0.2666218 0.71639836 0.44709575 1.0377232 -1.2161655 -0.25334752 -0.9012352 -1.0062687
1069 -0.19047286 -0.19705121 0.20330979 0.6684553 0.55287725 1.1199669 -1.1507713 -0.2866211 -0.96091706 -0.8814033
744 -0.16355248 -0.2080705 0.2523402 0.73794734 0.39369205 1.0183997 -1.1392584 -0.1212421 -0.8577711 -0.7779658
440 -0.30532408 -0.16569015 0.33730397 0.75033516 0.3752957 1.1314529 -1.1555444 -0.050522685 -0.8380096 -1.0222836
3056 -0.25923467 -0.03379762 0.213741 0.7309476 0.38468525 0.98142797 -1.2765638 -0.20709199 -0.9951284 -0.9615714
cable 0.07652717 -0.270244 0.01156065 0.6254108 0.61644894 0.89211136 -1.4471248 -0.3055346 -0.8584816 -0.72969246
2782 -0.183138 -0.17328513 0.17072265 0.69174916 0.4352341 1.0940776 -1.2713609 -0.19701728 -0.8066267 -0.9632937
1740 -0.17238258 -0.07301529 0.21282513 0.81420195 0.38274184 0.98391896 -1.2073802 -0.29985398 -0.92133623 -0.9312296
2731 -0.25746444 -0.17942354 0.24593142 0.69872135 0.44848502 1.1007209 -1.2788904 -0.15976802 -0.8811654 -0.9989296
2506 -0.21931657 -0.2574554 0.12741081 0.6530358 0.5326396 1.1322608 -1.3056881 -0.09763359 -0.8901732 -0.8373552
671 -0.20986634 -0.09198506 0.19504943 0.58278584 0.40027848 1.02348 -1.17499 -0.2126026 -0.9501325 -0.77491677
2859 -0.23337217 -0.12217054 0.22815862 0.6367781 0.52122283 0.9260179 -1.2346716 -0.26902246 -0.83386666 -0.800283
155 -0.079219155 -0.24366648 0.15422426 0.6829899 0.54476607 1.1149106 -1.2980347 -0.22079606 -0.9195466 -0.8330965
2173 -0.34107396 -0.03555725 0.19054021 0.73916 0.41454548 1.1778154 -1.2189729 -0.042295694 -0.8937118 -1.0608947
3046 -0.22557113 -0.13498783 0.1695398 0.5673651 0.5533021 1.0386715 -1.2958503 -0.09136244 -0.88338315 -0.82221806
2395 -0.11309619 -0.11910405 0.2634629 0.7056698 0.34723532 1.1085154 -1.2401468 -0.2483424 -0.82042146 -1.0113949
1744 -0.27821416 -0.17049377 0.2703458 0.6520947 0.35571927 1.0251561 -1.2576994 -0.05142803 -0.9036111 -0.85211474
http://www.semanticweb.org/karoliina/ontologies/2017/4/Restaurant#Expensive 0.074218005 -0.119606555 -0.17081484 0.8901422 0.5842486 0.87174886 -1.0129575 0.16440706 -1.1125994 -0.33013192
1597 -0.20031139 -0.35144502 0.18547995 0.68513805 0.37756115 1.0138919 -1.1223297 -0.100572705 -0.950296 -0.67185336
344 -0.30008325 -0.13740768 0.25984052 0.62248486 0.362635 1.1013265 -1.316057 -0.1224826 -0.8617926 -0.95056397
supply_46_58 -0.15538248 -0.36835223 0.024250077 0.5182348 0.42511073 1.0075341 -1.2679864 -0.14281617 -0.826517 -0.6459717
745 -0.21066369 -0.29986542 0.2968668 0.6550656 0.4695175 1.1061311 -1.1968161 -0.12507975 -0.92394704 -0.75549924
aluminum -0.20187521 -0.20825683 0.0870591 0.6930226 0.44717124 1.0727552 -1.2405559 -0.09012847 -1.024833 -0.76689345
2398 -0.09116572 -0.3014396 0.17826909 0.58525896 0.44410682 1.0574192 -1.1983793 -0.19814433 -0.9687091 -0.94522125
up_10_17 -0.09465851 -0.16691068 0.11703906 0.57596415 0.37988865 1.0965178 -1.1510934 -0.08509914 -0.95450425 -0.7574632
1086 -0.31190184 -0.16732137 0.24470393 0.63869613 0.4575413 1.0984169 -1.1773365 -0.21019313 -0.9693164 -0.74042827
monitor -0.2286652 -0.11554204 0.24808952 0.6936131 0.37859046 1.2273425 -1.2259358 -0.16659021 -0.9899763 -1.0102977
124 -0.28841668 -0.21368803 0.2245429 0.6721676 0.5260214 1.1893505 -1.1773884 -0.17381506 -0.9063842 -0.9798304
1865 -0.14961536 -0.27948433 0.24714173 0.6200272 0.4816303 1.0052959 -1.1442041 -0.16547914 -0.97671723 -0.8571832
1427 -0.15309145 -0.27078867 0.23274377 0.63409036 0.42725068 1.0715537 -1.2618883 -0.16118835 -0.82873565 -0.88017076
599 -0.32654455 -0.25388986 0.21689883 0.6857264 0.49618953 1.0155464 -1.1865389 -0.2429961 -0.9870155 -0.8346368
board_51_63 -0.13035676 -0.21169457 0.1301365 0.68166876 0.46032172 0.8396495 -1.2263584 -0.09949677 -0.99828136 -0.6908524
support_24_40 -0.25201094 -0.33506978 0.1557177 0.5411512 0.44925955 1.0241776 -1.2010258 -0.23565437 -0.9275096 -0.60081095
stick -0.15018398 -0.31023398 -0.016958723 0.6940216 0.44024667 1.054916 -1.375106 -0.12415822 -1.092609 -0.814256
1553 -0.22697179 -0.12809905 0.2138111 0.7031219 0.3534863 1.1593004 -1.1902424 -0.3230758 -0.8398177 -1.135761
1126 -0.2518769 -0.024570357 0.056282084 0.7252829 0.49277228 1.068892 -1.1632606 -0.18922321 -0.91646826 -0.9909661
technical -0.111613005 -0.17867899 0.09788854 0.7163349 0.5977761 0.9396298 -1.3309356 -0.112448 -1.024538 -0.78245497
697 -0.25901392 -0.18836685 0.21892051 0.5828756 0.38476694 1.1082112 -1.3733767 -0.2785617 -0.85812914 -0.95257777
drive_42_52 -0.19863063 -0.19020595 0.17583017 0.6650475 0.41439092 1.0024459 -1.2665625 -0.07305229 -0.9290859 -0.7162682
at -0.15653905 -0.41347322 0.028530391 0.7471746 0.5818401 0.97302574 -1.2303102 -0.28530118 -1.081795 -0.7205303
life_6_18 -0.13533746 -0.13140747 0.28451586 0.5792195 0.48484525 1.037409 -1.0886383 -0.2126174 -0.99348 -0.89269024
1374 -0.10771401 -0.36313257 0.24682258 0.7030062 0.39438823 1.060922 -1.2396427 -0.22096443 -0.9367154 -0.7522061
click 0.07977086 -0.3621125 0.026967464 0.41625175 0.5382805 0.9367048 -1.4115056 -0.21994767 -0.9106481 -0.7620556
3011 -0.11280618 -0.12547506 0.11301546 0.71891254 0.4652511 1.0115423 -1.206418 -0.28496522 -0.84190625 -0.83830357
982 -0.11017984 -0.2121154 0.07538432 0.6682153 0.5471578 1.0515687 -1.1404793 -0.1495695 -0.8517778 -0.6480409
volume -0.10275462 -0.2603321 0.0710129 0.59228534 0.44311458 0.98170835 -1.3108892 -0.25302532 -0.8702302 -0.90309024
394 -0.11850283 -0.2380662 0.19147287 0.6568712 0.54079854 1.1551843 -1.2012781 -0.1814514 -0.79828817 -0.9839515
496 -0.23142865 -0.08279269 0.14911288 0.69359374 0.48704398 0.9954149 -1.0783592 -0.2155162 -0.9783603 -0.9196699
1425 -0.0993905 -0.26163256 0.24334861 0.6278901 0.3753329 1.0928777 -1.2597617 -0.1443904 -0.8999889 -0.97076267
http://www.semanticweb.org/karoliina/ontologies/2017/4/Restaurant#Pricey 0.21109977 -0.03627836 -0.13374573 0.9628719 0.5494902 0.9083505 -0.9978756 0.1478052 -1.0447342 -0.38614833
1316 -0.22807932 -0.26469874 0.12411869 0.50111103 0.41455984 0.9752387 -1.1776216 -0.23201235 -0.87623036 -0.86209947
160 -0.33488712 -0.22339346 0.24268155 0.77791107 0.3496099 1.1088569 -1.2432814 -0.19706753 -0.8590371 -0.93879914
1088 -0.14243916 -0.14647612 0.34250548 0.6565354 0.45338923 1.1576742 -1.1321568 -0.17419796 -0.9569235 -0.9282907
based -0.007360776 -0.30507183 0.07167752 0.58568245 0.50911504 1.0678816 -1.3025436 -0.12548827 -1.024363 -0.774682
2311 -0.35363126 -0.024729358 0.26601452 0.8040077 0.3704485 1.1293321 -1.1441065 -0.20366874 -0.88457173 -1.0751376
2290 -0.2613915 -0.08366373 0.14441784 0.563029 0.47348735 1.0666074 -1.2202178 -0.16688576 -0.93023545 -1.0097705
2393 -0.31176418 -0.14819697 0.19888547 0.75283766 0.37609228 1.0985941 -1.3137556 -0.21289557 -0.78225785 -1.0559976
application -0.029145684 -0.2726953 0.024238957 0.46186212 0.625032 0.9613456 -1.290144 -0.13988806 -0.80205315 -0.84944046
2561 -0.14015439 -0.08987443 0.15380307 0.7175663 0.38236314 1.1411817 -1.1996471 -0.096879765 -0.9330396 -0.8315883
button_26_37 -0.1325059 -0.22851917 0.084018126 0.6150594 0.4509262 0.97520924 -1.2433151 -0.19173501 -0.81449497 -0.76227987
http://www.semanticweb.org/karoliina/ontologies/2017/4/Restaurant#Mechanical 0.16687441 -0.075283326 -0.23322506 0.73746186 0.41962484 0.84908426 -1.0032924 -0.011882366 -1.0533527 -0.46253932
2531 -0.1396227 -0.1626875 0.088623874 0.6341833 0.3465927 0.9858191 -1.2113014 -0.23779994 -0.94369537 -0.796636
2276 -0.18809476 -0.2739772 0.20144238 0.66905016 0.5453766 0.97117674 -1.1611153 -0.15797804 -0.9782604 -0.807727
130 -0.3230626 -0.16180183 0.18553168 0.7219525 0.5451997 1.056722 -1.1029481 -0.12698257 -1.0122373 -0.8720466
127 -0.25432327 -0.14006263 0.1994377 0.6755931 0.50082624 1.0924745 -1.281266 -0.09701867 -1.0752221 -0.8989536
338 -0.1681874 -0.26450697 0.256244 0.55321014 0.3828228 0.966027 -1.203455 -0.16881925 -0.9348646 -0.8757749
7_121_130 -0.27384394 -0.17791244 0.20537004 0.7294945 0.46169406 1.009472 -1.131075 -0.09127024 -0.9059752 -0.7351603
pages -0.27453858 -0.25734758 0.30963168 0.7618693 0.47156796 1.1147494 -1.32646 -0.19379954 -0.81809586 -1.1007881
2273 -0.20079002 -0.33468455 0.23031983 0.65331566 0.49698225 1.03151 -1.2286743 -0.07901534 -0.8894129 -0.7227998
246 -0.2414856 -0.12023275 0.23682138 0.6646633 0.3860319 1.1022987 -1.0914271 -0.13621092 -0.9287395 -0.86481214
1878 -0.31956884 -0.15899487 0.15827417 0.6360177 0.54922205 0.95357555 -1.3196564 -0.21330763 -0.9819967 -0.8369013
s -0.25948617 -0.3269988 0.0730557 0.74030864 0.54709494 1.1523026 -1.2453762 -0.19148794 -0.9581253 -0.7487402
2304 -0.23264743 -0.27858955 0.21908006 0.6813889 0.48366293 0.9582387 -1.289064 -0.24605492 -0.898587 -0.7983641
1480 -0.19910984 -0.16872236 0.29496887 0.747778 0.38437387 1.1192368 -1.1711895 -0.10116713 -0.9265785 -0.9084912
7_7_16 -0.12690529 -0.3749044 0.15497546 0.56921726 0.54909474 0.89228714 -1.2648233 -0.17304546 -0.9907758 -0.6883599
life_18_30 -0.20704097 -0.24204668 0.22846173 0.64295155 0.49685326 1.0469471 -1.1325434 -0.12790132 -0.9623722 -0.7607052
hdd -0.12333698 -0.19127865 0.107716136 0.6627648 0.44977975 1.1227883 -1.170011 -0.2020561 -0.9825908 -0.94797975
mother -0.13855968 -0.2649958 0.17690508 0.6502827 0.46100664 1.0085853 -1.172991 -0.23664416 -0.9287755 -0.7932102
1097 -0.34577665 -0.1471485 0.18508253 0.5148222 0.48247838 1.0222045 -1.1509763 -0.18896894 -0.9220778 -0.6683871
208 -0.14038646 -0.101916604 0.19453914 0.58465797 0.46938607 1.1605426 -1.2679658 -0.31604412 -0.87580645 -0.84626853
a -0.27035248 -0.31331444 0.09385511 0.73753333 0.5340166 1.1909463 -1.3071465 -0.20500664 -1.0210292 -0.94980985
963 -0.19213176 -0.24129015 0.2699405 0.6657577 0.52801424 1.1267447 -1.2127273 -0.14554279 -1.0243179 -0.83689284
plug 0.053930216 -0.2869291 0.086422674 0.6292836 0.43103105 1.1705363 -1.3033853 -0.3190201 -0.88211066 -0.84126896
wifi 0.19139592 -0.07031734 0.08177905 0.47634467 0.64262474 0.88893694 -1.4803537 -0.3070682 -0.7640502 -0.9390355
838 -0.1539857 -0.20311965 0.22049387 0.71751696 0.41959986 1.0688562 -1.206864 -0.1590225 -0.8832887 -0.88738716
life_44_56 -0.13799928 -0.15085316 0.21556437 0.67876744 0.42154893 1.0461812 -1.0965015 -0.14394821 -0.9169108 -0.9196886
packing_30_42 -0.073077135 -0.29461986 0.18121439 0.570101 0.48563007 0.9444335 -1.1478126 -0.22705926 -0.9609337 -0.64127344
notebook 0.19940779 -0.40417773 -0.037186544 0.529033 0.5291855 1.0114927 -1.4466753 -0.38606894 -0.9428709 -0.75417536
supply_58_70 -0.19953808 -0.20800847 0.11790177 0.5303738 0.39845613 1.0102096 -1.2411731 -0.21760152 -0.9004324 -0.7791604
334 -0.18512091 -0.25056612 0.22453451 0.5452039 0.562361 1.134729 -1.2101625 -0.07694341 -0.9168745 -0.75417155
953 -0.13209052 -0.26367027 0.08119552 0.64878505 0.5730979 1.0803888 -1.1763134 -0.18911657 -0.8811776 -0.80939114
mouse_65_79 -0.20395087 -0.2560576 0.21852441 0.6320388 0.47558904 0.9226926 -1.191479 -0.24756698 -0.9348745 -0.6947136
http://example.org/AspectTerm_2272_Windows -0.21581516 -0.3884388 0.113533996 0.71086717 0.44648862 0.9483299 -1.2333786 -0.19148313 -1.1769513 -0.5928053
2009 -0.30964437 -0.1946157 0.19781022 0.74256027 0.43391013 1.2250453 -1.2324862 -0.19124587 -0.8008685 -0.87319654
1450 -0.22330888 -0.07144241 0.31273687 0.5987449 0.5260564 0.98650116 -1.4186943 -0.34506658 -0.8804521 -0.93673986
2478 -0.18504623 -0.1331038 0.23325214 0.73517543 0.3782546 1.1605214 -1.2802674 -0.21991558 -0.9374038 -0.876364
2830 -0.26906586 -0.20890726 0.1999733 0.7743833 0.41756687 1.0260078 -1.2870659 -0.20299222 -0.8752639 -0.8342894
2791 -0.32609493 -0.17895854 0.18110172 0.70256263 0.43393952 1.0783327 -1.2791775 -0.19260414 -0.8715267 -0.8556802
2713 -0.14736858 -0.21069257 0.207181 0.6867654 0.47873065 1.077221 -1.1854163 -0.15272614 -0.9338302 -0.81486213
121 -0.21249133 -0.14244474 0.354389 0.7444432 0.4204104 1.2471517 -1.23645 -0.07369156 -0.91840345 -0.95548916
1731 -0.24000837 -0.20993842 0.21131453 0.730918 0.35605812 1.2038269 -1.1389267 -0.13542517 -0.87253785 -0.8111112
314 -0.246509 -0.16501473 0.17619197 0.70376265 0.3970064 1.1092211 -1.1694013 -0.23152135 -0.9051441 -0.86818147
protection -0.16429862 -0.27423576 0.23144943 0.61313546 0.62069494 1.1963831 -1.3648305 -0.17098576 -1.0652987 -0.90795124
2541 -0.20989762 -0.19229297 0.1493862 0.6886934 0.49230006 1.0581785 -1.2025769 -0.15551098 -0.9384472 -0.7429717
2711 -0.09673445 -0.26740834 0.2756218 0.7316524 0.42826617 1.0164222 -1.2976513 -0.11571112 -0.8695575 -0.8157836
2585 -0.29682183 -0.1459538 0.2542883 0.67756355 0.41783702 1.1666151 -1.1909479 -0.119563684 -0.86300194 -0.9480007
2071 -0.17797528 -0.16696876 0.2158786 0.6536094 0.3870946 1.0917933 -1.233044 -0.053298295 -0.90961874 -0.720534
drive_39_49 -0.11384088 -0.2314294 0.22816895 0.685709 0.5098048 0.9014516 -1.2764693 -0.10718683 -0.9127063 -0.62307227
on -0.088857256 -0.3708897 0.16529156 0.71644676 0.6390372 1.0094978 -1.4136622 -0.35040024 -0.99023056 -0.83878535
life_0_12 -0.067012206 -0.25925952 0.22725475 0.5834699 0.53104794 0.9772532 -1.2179129 -0.10265429 -0.840445 -0.7877575
2697 -0.20129284 -0.24279495 0.32225242 0.56335527 0.30547628 1.0572889 -1.2799133 -0.2342374 -0.84712636 -0.8231702
acer 0.10182544 -0.22343624 0.0021948372 0.4299487 0.6515577 0.9132663 -1.3211439 -0.34370258 -0.8545257 -0.8909777
brand -0.002174871 -0.110768035 0.09451466 0.60696274 0.54457223 1.0408486 -1.3098452 -0.31919742 -0.82211006 -0.8793211
osx -0.20036268 -0.091066465 0.28424856 0.65202725 0.49926865 1.2508167 -1.2895432 -0.2815798 -0.831542 -0.97741425
1591 -0.25452802 -0.061427794 0.28279218 0.74272597 0.36708626 1.1017425 -1.289521 -0.14046985 -0.8917468 -0.9869946
3062 -0.35350218 0.020218765 0.27166083 0.778677 0.41364387 1.1946888 -1.1951913 -0.19883968 -0.8783457 -0.9620335
220 -0.118154794 -0.14552586 0.22065054 0.6399436 0.3746373 1.1836485 -1.2816585 -0.2975569 -0.9255648 -0.81339633
software_72_90 -0.18430828 -0.17908505 0.20932902 0.6969979 0.38582945 0.98004055 -1.1828943 -0.1067276 -0.9423203 -0.82045996
track -0.21683265 -0.2863607 0.23321746 0.59978455 0.5009302 0.9872945 -1.2047392 -0.1821084 -1.0642779 -0.7901204
1080 -0.227405 -0.19605586 0.16508736 0.7221813 0.4050568 1.0221305 -1.1545042 -0.13469231 -0.924945 -0.9662774
support_12_28 -0.2537645 -0.23011303 0.17132223 0.6494127 0.48131087 0.94025445 -1.1502374 -0.13829295 -0.92435557 -0.6047365
719 -0.17801668 -0.08480217 0.36115125 0.71188855 0.33231428 1.1934826 -1.2194047 -0.1103414 -0.91955215 -0.9557157
335 -0.20361039 -0.22844818 0.08107539 0.5858235 0.42044884 1.0338354 -1.1436722 -0.2072765 -0.9939543 -0.81311977
213 -0.21402293 -0.06363812 0.2156938 0.6994372 0.4952635 1.1091915 -1.222068 -0.1310916 -0.876604 -0.9051709
1 -0.13047192 -0.19999501 0.19674847 0.6783048 0.33028567 1.2445214 -1.2705559 -0.27361295 -0.97978425 -0.87865007
1660 -0.15643306 -0.23199485 0.19040151 0.68804866 0.3610424 1.1202077 -1.2121321 -0.20341086 -0.99623775 -0.9400541
2271 -0.23476371 -0.14956807 0.1948019 0.63530654 0.46161976 1.1427802 -1.347515 -0.07475376 -0.8272219 -0.8719272
2246 -0.25617313 -0.08944733 0.26093152 0.6933967 0.43520713 1.1284821 -1.2229934 -0.20298652 -0.950838 -0.959629
life_57_69 -0.15129624 -0.17963311 0.14679965 0.58174443 0.46265104 0.99659204 -1.1970369 -0.08809413 -0.87706286 -0.7515139
2973 -0.26319236 -0.14456603 0.2912708 0.7100619 0.34039906 1.1089967 -1.1647164 -0.163159 -0.9452365 -1.0032235
1216 -0.18572493 -0.3430037 0.24760962 0.7098216 0.49283263 1.0482209 -1.2203515 -0.17812149 -0.9169107 -0.79265606
2811 -0.1853431 -0.30114788 0.187568 0.6565524 0.3937102 0.91520685 -1.3092139 -0.20045255 -0.8464886 -0.83742785
system_55_71 -0.2205637 -0.27820867 0.14966199 0.66318053 0.3926709 1.1251892 -1.2049307 -0.17399429 -0.9736035 -0.8279262
warranty_45_62 -0.10808427 -0.27731442 0.0674022 0.6057848 0.44572154 0.9198773 -1.2409836 -0.2133497 -0.97355545 -0.5832906
